<?xml version="1.0"?>
<MethodSetup Method="BDT::BDTG">
  <GeneralInfo>
    <Info name="TMVA Release" value="4.2.1 [262657]"/>
    <Info name="ROOT Release" value="6.12/06 [396294]"/>
    <Info name="Creator" value="renlu23"/>
    <Info name="Date" value="Tue Apr 16 13:21:29 2019"/>
    <Info name="Host" value="Linux buildservice004.fnal.gov 2.6.32-696.20.1.el6.x86_64 #1 SMP Thu Jan 25 08:47:49 CST 2018 x86_64 x86_64 x86_64 GNU/Linux"/>
    <Info name="Dir" value="/uboone/app/users/renlu23/NCE_April/srcs/ubana/ubana/NCElastic/TMVA"/>
    <Info name="Training events" value="3228815"/>
    <Info name="TrainingTime" value="2.85928859e+03"/>
    <Info name="AnalysisType" value="Classification"/>
  </GeneralInfo>
  <Options>
    <Option name="V" modified="Yes">False</Option>
    <Option name="VerbosityLevel" modified="No">Default</Option>
    <Option name="VarTransform" modified="No">None</Option>
    <Option name="H" modified="Yes">False</Option>
    <Option name="CreateMVAPdfs" modified="No">False</Option>
    <Option name="IgnoreNegWeightsInTraining" modified="No">False</Option>
    <Option name="NTrees" modified="Yes">300</Option>
    <Option name="MaxDepth" modified="Yes">6</Option>
    <Option name="MinNodeSize" modified="Yes">5%</Option>
    <Option name="nCuts" modified="Yes">20</Option>
    <Option name="BoostType" modified="Yes">Grad</Option>
    <Option name="AdaBoostR2Loss" modified="No">quadratic</Option>
    <Option name="UseBaggedBoost" modified="Yes">True</Option>
    <Option name="Shrinkage" modified="Yes">5.000000e-02</Option>
    <Option name="AdaBoostBeta" modified="No">5.000000e-01</Option>
    <Option name="UseRandomisedTrees" modified="No">False</Option>
    <Option name="UseNvars" modified="No">4</Option>
    <Option name="UsePoissonNvars" modified="No">True</Option>
    <Option name="BaggedSampleFraction" modified="Yes">7.500000e-01</Option>
    <Option name="UseYesNoLeaf" modified="No">True</Option>
    <Option name="NegWeightTreatment" modified="Yes">pairnegweightsglobal</Option>
    <Option name="Css" modified="No">1.000000e+00</Option>
    <Option name="Cts_sb" modified="No">1.000000e+00</Option>
    <Option name="Ctb_ss" modified="No">1.000000e+00</Option>
    <Option name="Cbb" modified="No">1.000000e+00</Option>
    <Option name="NodePurityLimit" modified="No">5.000000e-01</Option>
    <Option name="SeparationType" modified="No">giniindex</Option>
    <Option name="RegressionLossFunctionBDTG" modified="No">huber</Option>
    <Option name="HuberQuantile" modified="No">7.000000e-01</Option>
    <Option name="DoBoostMonitor" modified="No">False</Option>
    <Option name="UseFisherCuts" modified="No">False</Option>
    <Option name="MinLinCorrForFisher" modified="No">8.000000e-01</Option>
    <Option name="UseExclusiveVars" modified="No">False</Option>
    <Option name="DoPreselection" modified="No">False</Option>
    <Option name="SigToBkgFraction" modified="No">1.000000e+00</Option>
    <Option name="PruneMethod" modified="No">nopruning</Option>
    <Option name="PruneStrength" modified="No">0.000000e+00</Option>
    <Option name="PruningValFraction" modified="No">5.000000e-01</Option>
    <Option name="SkipNormalization" modified="No">False</Option>
    <Option name="nEventsMin" modified="No">0</Option>
    <Option name="UseBaggedGrad" modified="No">False</Option>
    <Option name="GradBaggingFraction" modified="No">7.500000e-01</Option>
    <Option name="UseNTrainEvents" modified="No">0</Option>
    <Option name="NNodesMax" modified="No">0</Option>
  </Options>
  <Variables NVar="14">
    <Variable VarIndex="0" Expression="nhits" Label="nhits" Title="nhits" Unit="" Internal="nhits" Type="F" Min="2.00000000e+00" Max="7.84000000e+02"/>
    <Variable VarIndex="1" Expression="distlenratio" Label="distlenratio" Title="straightness" Unit="" Internal="distlenratio" Type="F" Min="8.62548040e-06" Max="1.00000012e+00"/>
    <Variable VarIndex="2" Expression="length" Label="length" Title="length" Unit="cm" Internal="length" Type="F" Min="3.37816164e-04" Max="4.04832109e+04"/>
    <Variable VarIndex="3" Expression="theta" Label="theta" Title="theta" Unit="radian" Internal="theta" Type="F" Min="0.00000000e+00" Max="3.14159274e+00"/>
    <Variable VarIndex="4" Expression="phi" Label="phi" Title="phi" Unit="radian" Internal="phi" Type="F" Min="-3.14158940e+00" Max="3.14159274e+00"/>
    <Variable VarIndex="5" Expression="startdedx" Label="startdedx" Title="startdedx" Unit="" Internal="startdedx" Type="F" Min="1.24869339e-01" Max="1.99952133e+02"/>
    <Variable VarIndex="6" Expression="dedxratio" Label="dedxratio" Title="dedxratio" Unit="" Internal="dedxratio" Type="F" Min="1.00000000e+00" Max="9.99997234e+00"/>
    <Variable VarIndex="7" Expression="traveragededx" Label="traveragededx" Title="traveragededx" Unit="" Internal="traveragededx" Type="F" Min="1.24864474e-01" Max="2.99995518e+01"/>
    <Variable VarIndex="8" Expression="trtotaldedx" Label="trtotaldedx" Title="trtotaldedx" Unit="" Internal="trtotaldedx" Type="F" Min="1.24938838e-01" Max="9.99854919e+02"/>
    <Variable VarIndex="9" Expression="starty" Label="starty" Title="starty" Unit="cm" Internal="starty" Type="F" Min="-9.99999924e+01" Max="9.99999847e+01"/>
    <Variable VarIndex="10" Expression="startz" Label="startz" Title="startz" Unit="cm" Internal="startz" Type="F" Min="3.20159085e-03" Max="9.99999390e+02"/>
    <Variable VarIndex="11" Expression="endy" Label="endy" Title="endy" Unit="cm" Internal="endy" Type="F" Min="-9.99999161e+01" Max="9.99998856e+01"/>
    <Variable VarIndex="12" Expression="endz" Label="endz" Title="endz" Unit="cm" Internal="endz" Type="F" Min="4.74614877e-04" Max="9.99999756e+02"/>
    <Variable VarIndex="13" Expression="cosmicscore" Label="cosmicscore" Title="cosmicscore" Unit="" Internal="cosmicscore" Type="F" Min="0.00000000e+00" Max="9.49999988e-01"/>
  </Variables>
  <Spectators NSpec="0">
    <!--Spectator SpecIndex="0" Expression="mcpdg" Label="mcpdg" Title="mcpdg" Unit="" Internal="mcpdg" Type="F" Min="-9.99900000e+03" Max="1.00018042e+09"/>
    <Spectator SpecIndex="1" Expression="startx" Label="startx" Title="startx" Unit="cm" Internal="startx" Type="F" Min="1.00000477e+01" Max="2.78987732e+02"/>
    <Spectator SpecIndex="2" Expression="endx" Label="endx" Title="endx" Unit="cm" Internal="endx" Type="F" Min="-2.05576730e+00" Max="2.47999939e+02"/>
    <Spectator SpecIndex="3" Expression="run" Label="run" Title="run" Unit="" Internal="run" Type="F" Min="4.97500000e+03" Max="7.01000000e+03"/>
    <Spectator SpecIndex="4" Expression="subrun" Label="subrun" Title="subrun" Unit="" Internal="subrun" Type="F" Min="0.00000000e+00" Max="1.76000000e+03"/>
    <Spectator SpecIndex="5" Expression="event" Label="event" Title="event" Unit="" Internal="event" Type="F" Min="1.00000000e+00" Max="8.80500000e+04"/>
    <Spectator SpecIndex="6" Expression="trackid" Label="trackid" Title="trackid" Unit="" Internal="trackid" Type="F" Min="0.00000000e+00" Max="5.18000000e+02"/>
    <Spectator SpecIndex="7" Expression="mc_ccnc" Label="mc_ccnc" Title="mc_ccnc" Unit="" Internal="mc_ccnc" Type="F" Min="0.00000000e+00" Max="1.00000000e+00"/>
    <Spectator SpecIndex="8" Expression="mc_mode" Label="mc_mode" Title="mc_mode" Unit="" Internal="mc_mode" Type="F" Min="0.00000000e+00" Max="1.00000000e+01"/>
    <Spectator SpecIndex="9" Expression="mc_hitnuc" Label="mc_hitnuc" Title="mc_hitnuc" Unit="" Internal="mc_hitnuc" Type="F" Min="0.00000000e+00" Max="2.00000026e+09"/>
    <Spectator SpecIndex="10" Expression="mc_q2" Label="mc_q2" Title="mc_q2" Unit="" Internal="mc_q2" Type="F" Min="3.45105545e-05" Max="7.13350391e+00"/>
    <Spectator SpecIndex="11" Expression="mc_nux" Label="mc_nux" Title="mc_nux" Unit="" Internal="mc_nux" Type="F" Min="-6.34035645e+01" Max="3.19762115e+02"/>
    <Spectator SpecIndex="12" Expression="mc_nuy" Label="mc_nuy" Title="mc_nuy" Unit="" Internal="mc_nuy" Type="F" Min="-1.91599411e+02" Max="1.91576889e+02"/>
    <Spectator SpecIndex="13" Expression="mc_nuz" Label="mc_nuz" Title="mc_nuz" Unit="" Internal="mc_nuz" Type="F" Min="-9.21583633e+01" Max="1.12907751e+03"/>
    <Spectator SpecIndex="14" Expression="mc_enu" Label="mc_enu" Title="mc_enu" Unit="" Internal="mc_enu" Type="F" Min="3.43036950e-02" Max="6.58085537e+00"/>
    <Spectator SpecIndex="15" Expression="mcpdg" Label="mcpdg" Title="mcpdg" Unit="" Internal="mcpdg" Type="F" Min="-9.99900000e+03" Max="1.00018042e+09"/>
    <Spectator SpecIndex="16" Expression="mcprimary" Label="mcprimary" Title="mcprimary" Unit="" Internal="mcprimary" Type="F" Min="-9.99900000e+03" Max="1.00000000e+00"/>
    <Spectator SpecIndex="17" Expression="mcorigin" Label="mcorigin" Title="mcorigin" Unit="" Internal="mcorigin" Type="F" Min="1.00000000e+00" Max="2.00000000e+00"/>
    <Spectator SpecIndex="18" Expression="mclength" Label="mclength" Title="mclength" Unit="" Internal="mclength" Type="F" Min="-9.99900000e+03" Max="2.82606750e+05"/>
    <Spectator SpecIndex="19" Expression="mcstartx" Label="mcstartx" Title="mcstartx" Unit="" Internal="mcstartx" Type="F" Min="-9.99900000e+03" Max="3.19667358e+02"/>
    <Spectator SpecIndex="20" Expression="mcstarty" Label="mcstarty" Title="mcstarty" Unit="" Internal="mcstarty" Type="F" Min="-9.99900000e+03" Max="3.62799164e+02"/>
    <Spectator SpecIndex="21" Expression="mcstartz" Label="mcstartz" Title="mcstartz" Unit="" Internal="mcstartz" Type="F" Min="-9.99900000e+03" Max="1.28246472e+03"/>
    <Spectator SpecIndex="22" Expression="mcendx" Label="mcendx" Title="mcendx" Unit="" Internal="mcendx" Type="F" Min="-7.41630000e+04" Max="7.41630000e+04"/>
    <Spectator SpecIndex="23" Expression="mcendy" Label="mcendy" Title="mcendy" Unit="" Internal="mcendy" Type="F" Min="-2.16675098e+04" Max="5.30000000e+04"/>
    <Spectator SpecIndex="24" Expression="mcendz" Label="mcendz" Title="mcendz" Unit="" Internal="mcendz" Type="F" Min="-7.41630000e+04" Max="7.41630000e+04"/>
    <Spectator SpecIndex="25" Expression="mctheta" Label="mctheta" Title="mctheta" Unit="" Internal="mctheta" Type="F" Min="-9.99900000e+03" Max="3.13839030e+00"/>
    <Spectator SpecIndex="26" Expression="mcphi" Label="mcphi" Title="mcphi" Unit="" Internal="mcphi" Type="F" Min="-9.99900000e+03" Max="3.14141393e+00"/>
    <Spectator SpecIndex="27" Expression="mckinetic" Label="mckinetic" Title="mckinetic" Unit="" Internal="mckinetic" Type="F" Min="-9.99900000e+03" Max="5.79752922e+00"/-->
  </Spectators>
  <Classes NClass="2">
    <Class Name="Signal" Index="0"/>
    <Class Name="Background" Index="1"/>
  </Classes>
  <Transformations NTransformations="0"/>
  <MVAPdfs/>
  <Weights NTrees="300" AnalysisType="1">
    <BinaryTree type="DecisionTree" boostWeight="1.0000000000000000e+00" itree="0">
      <Node pos="s" depth="0" NCoef="0" IVar="0" Cut="3.9142856597900391e+01" cType="1" res="-6.0900731477886438e-04" rms="4.9999964237213135e-01" purity="4.9939098954200745e-01" nType="0">
        <Node pos="l" depth="1" NCoef="0" IVar="0" Cut="5.5238094329833984e+00" cType="1" res="-1.5574134886264801e-01" rms="4.7512590885162354e-01" purity="3.4425866603851318e-01" nType="0">
          <Node pos="l" depth="2" NCoef="0" IVar="12" Cut="3.8095983886718750e+02" cType="1" res="-3.3864891529083252e-01" rms="3.6785447597503662e-01" purity="1.6135109961032867e-01" nType="0">
            <Node pos="l" depth="3" NCoef="0" IVar="3" Cut="1.3464934825897217e+00" cType="1" res="-2.1349713206291199e-01" rms="4.5212715864181519e-01" purity="2.8650289773941040e-01" nType="0">
              <Node pos="l" depth="4" NCoef="0" IVar="-1" Cut="0.0000000000000000e+00" cType="1" res="-2.7321198955178261e-02" rms="4.1875436902046204e-01" purity="2.2678799927234650e-01" nType="-99"/>
              <Node pos="r" depth="4" NCoef="0" IVar="-1" Cut="0.0000000000000000e+00" cType="1" res="-1.7688795924186707e-02" rms="4.6766510605812073e-01" purity="3.2311204075813293e-01" nType="-99"/>
            </Node>
            <Node pos="r" depth="3" NCoef="0" IVar="12" Cut="6.4626287841796875e+02" cType="1" res="-4.0880689024925232e-01" rms="2.8788352012634277e-01" purity="9.1193087399005890e-02" nType="0">
              <Node pos="l" depth="4" NCoef="0" IVar="12" Cut="5.1992828369140625e+02" cType="1" res="-3.6850321292877197e-01" rms="3.3794286847114563e-01" purity="1.3149678707122803e-01" nType="0">
                <Node pos="l" depth="5" NCoef="0" IVar="-1" Cut="0.0000000000000000e+00" cType="1" res="-3.4461393952369690e-02" rms="3.6227232217788696e-01" purity="1.5538607537746429e-01" nType="-99"/>
                <Node pos="r" depth="5" NCoef="0" IVar="-1" Cut="0.0000000000000000e+00" cType="1" res="-3.9357692003250122e-02" rms="3.0837836861610413e-01" purity="1.0642309486865997e-01" nType="-99"/>
              </Node>
              <Node pos="r" depth="4" NCoef="0" IVar="11" Cut="-4.7617211341857910e+00" cType="1" res="-4.4985896348953247e-01" rms="2.1823592483997345e-01" purity="5.0141047686338425e-02" nType="0">
                <Node pos="l" depth="5" NCoef="0" IVar="-1" Cut="0.0000000000000000e+00" cType="1" res="-4.3720461428165436e-02" rms="2.4259456992149353e-01" purity="6.2795385718345642e-02" nType="-99"/>
                <Node pos="r" depth="5" NCoef="0" IVar="-1" Cut="0.0000000000000000e+00" cType="1" res="-4.5927304774522781e-02" rms="1.9765691459178925e-01" purity="4.0726937353610992e-02" nType="-99"/>
              </Node>
            </Node>
          </Node>
          <Node pos="r" depth="2" NCoef="0" IVar="0" Cut="1.3857142448425293e+01" cType="1" res="5.2297398447990417e-02" rms="4.9725747108459473e-01" purity="5.5229741334915161e-01" nType="0">
            <Node pos="l" depth="3" NCoef="0" IVar="12" Cut="4.2856610107421875e+02" cType="1" res="-5.2086234092712402e-02" rms="4.9727961421012878e-01" purity="4.4791373610496521e-01" nType="0">
              <Node pos="l" depth="4" NCoef="0" IVar="-1" Cut="0.0000000000000000e+00" cType="1" res="5.8950837701559067e-03" rms="4.9651265144348145e-01" purity="5.5895084142684937e-01" nType="-99"/>
              <Node pos="r" depth="4" NCoef="0" IVar="-1" Cut="0.0000000000000000e+00" cType="1" res="-1.8425872549414635e-02" rms="4.6481043100357056e-01" purity="3.1574130058288574e-01" nType="-99"/>
            </Node>
            <Node pos="r" depth="3" NCoef="0" IVar="-1" Cut="0.0000000000000000e+00" cType="1" res="2.0472805947065353e-02" rms="4.5616489648818970e-01" purity="7.0472806692123413e-01" nType="-99"/>
          </Node>
        </Node>
        <Node pos="r" depth="1" NCoef="0" IVar="-1" Cut="0.0000000000000000e+00" cType="1" res="3.8623668253421783e-02" rms="3.1752359867095947e-01" purity="8.8623672723770142e-01" nType="-99"/>
      </Node>
    </BinaryTree>
    <BinaryTree type="DecisionTree" boostWeight="1.0000000000000000e+00" itree="1">
      <Node pos="s" depth="0" NCoef="0" IVar="8" Cut="4.7731128692626953e+01" cType="1" res="1.8087744247168303e-03" rms="4.9025592207908630e-01" purity="5.0177711248397827e-01" nType="0">
        <Node pos="l" depth="1" NCoef="0" IVar="12" Cut="3.3333505249023438e+02" cType="1" res="-1.5713834762573242e-01" rms="4.6599149703979492e-01" purity="3.3470085263252258e-01" nType="0">
          <Node pos="l" depth="2" NCoef="0" IVar="8" Cut="6.9260544776916504e+00" cType="1" res="2.1137222647666931e-02" rms="4.9561020731925964e-01" purity="5.2083665132522583e-01" nType="0">
            <Node pos="l" depth="3" NCoef="0" IVar="7" Cut="1.0964165925979614e+00" cType="1" res="-1.2467689812183380e-01" rms="4.7997209429740906e-01" purity="3.6923769116401672e-01" nType="0">
              <Node pos="l" depth="4" NCoef="0" IVar="-1" Cut="0.0000000000000000e+00" cType="1" res="-4.0261368267238140e-03" rms="4.9506601691246033e-01" purity="4.5671677589416504e-01" nType="-99"/>
              <Node pos="r" depth="4" NCoef="0" IVar="-1" Cut="0.0000000000000000e+00" cType="1" res="-2.1323559805750847e-02" rms="4.4683146476745605e-01" purity="2.7757856249809265e-01" nType="-99"/>
            </Node>
            <Node pos="r" depth="3" NCoef="0" IVar="-1" Cut="0.0000000000000000e+00" cType="1" res="1.6655415296554565e-02" rms="4.6745494008064270e-01" purity="6.7196035385131836e-01" nType="-99"/>
          </Node>
          <Node pos="r" depth="2" NCoef="0" IVar="8" Cut="9.1927433013916016e+00" cType="1" res="-2.7383562922477722e-01" rms="4.0507027506828308e-01" purity="2.1285833418369293e-01" nType="0">
            <Node pos="l" depth="3" NCoef="0" IVar="10" Cut="4.6801000976562500e+02" cType="1" res="-3.3982491493225098e-01" rms="3.4770143032073975e-01" purity="1.4339977502822876e-01" nType="0">
              <Node pos="l" depth="4" NCoef="0" IVar="-1" Cut="0.0000000000000000e+00" cType="1" res="-2.5760358199477196e-02" rms="4.1896983981132507e-01" purity="2.3118230700492859e-01" nType="-99"/>
              <Node pos="r" depth="4" NCoef="0" IVar="7" Cut="9.8847466707229614e-01" cType="1" res="-3.6503818631172180e-01" rms="3.1853985786437988e-01" purity="1.1654604226350784e-01" nType="0">
                <Node pos="l" depth="5" NCoef="0" IVar="-1" Cut="0.0000000000000000e+00" cType="1" res="-2.9594548046588898e-02" rms="3.8713678717613220e-01" purity="1.8858614563941956e-01" nType="-99"/>
                <Node pos="r" depth="5" NCoef="0" IVar="0" Cut="2.6666667461395264e+00" cType="1" res="-4.0124323964118958e-01" rms="2.6912131905555725e-01" purity="7.9022377729415894e-02" nType="0">
                  <Node pos="l" depth="6" NCoef="0" IVar="-1" Cut="0.0000000000000000e+00" cType="1" res="-4.3487798422574997e-02" rms="2.0684510469436646e-01" purity="4.4785056263208389e-02" nType="-99"/>
                  <Node pos="r" depth="6" NCoef="0" IVar="-1" Cut="0.0000000000000000e+00" cType="1" res="-3.7951525300741196e-02" rms="3.0218991637229919e-01" purity="1.0226495563983917e-01" nType="-99"/>
                </Node>
              </Node>
            </Node>
            <Node pos="r" depth="3" NCoef="0" IVar="12" Cut="5.8729907226562500e+02" cType="1" res="-9.9503315985202789e-02" rms="4.8608139157295227e-01" purity="3.9635592699050903e-01" nType="0">
              <Node pos="l" depth="4" NCoef="0" IVar="-1" Cut="0.0000000000000000e+00" cType="1" res="-3.3019748516380787e-03" rms="4.9686351418495178e-01" purity="4.6394687891006470e-01" nType="-99"/>
              <Node pos="r" depth="4" NCoef="0" IVar="-1" Cut="0.0000000000000000e+00" cType="1" res="-1.5757447108626366e-02" rms="4.6885335445404053e-01" purity="3.3744239807128906e-01" nType="-99"/>
            </Node>
          </Node>
        </Node>
        <Node pos="r" depth="1" NCoef="0" IVar="-1" Cut="0.0000000000000000e+00" cType="1" res="3.3992934972047806e-02" rms="3.4920415282249451e-01" purity="8.5672754049301147e-01" nType="-99"/>
      </Node>
    </BinaryTree>
    <BinaryTree type="DecisionTree" boostWeight="1.0000000000000000e+00" itree="2">
      <Node pos="s" depth="0" NCoef="0" IVar="0" Cut="3.9142856597900391e+01" cType="1" res="-2.0594925154000521e-03" rms="4.8211067914962769e-01" purity="4.9794483184814453e-01" nType="0">
        <Node pos="l" depth="1" NCoef="0" IVar="0" Cut="5.5238094329833984e+00" cType="1" res="-1.4441221952438354e-01" rms="4.6365377306938171e-01" purity="3.4142675995826721e-01" nType="0">
          <Node pos="l" depth="2" NCoef="0" IVar="10" Cut="3.3334292602539062e+02" cType="1" res="-3.0799576640129089e-01" rms="3.6546161770820618e-01" purity="1.6205379366874695e-01" nType="0">
            <Node pos="l" depth="3" NCoef="0" IVar="11" Cut="1.4285240173339844e+01" cType="1" res="-1.9004486501216888e-01" rms="4.5470881462097168e-01" purity="2.9425647854804993e-01" nType="0">
              <Node pos="l" depth="4" NCoef="0" IVar="-1" Cut="0.0000000000000000e+00" cType="1" res="-2.2891849279403687e-02" rms="4.3515375256538391e-01" purity="2.5560379028320312e-01" nType="-99"/>
              <Node pos="r" depth="4" NCoef="0" IVar="-1" Cut="0.0000000000000000e+00" cType="1" res="-1.4338239096105099e-02" rms="4.7315239906311035e-01" purity="3.4115660190582275e-01" nType="-99"/>
            </Node>
            <Node pos="r" depth="3" NCoef="0" IVar="12" Cut="5.9434716796875000e+02" cType="1" res="-3.5752803087234497e-01" rms="3.0745345354080200e-01" purity="1.0653658956289291e-01" nType="0">
              <Node pos="l" depth="4" NCoef="0" IVar="6" Cut="1.8570915460586548e+00" cType="1" res="-3.1367138028144836e-01" rms="3.6119565367698669e-01" purity="1.5497164428234100e-01" nType="0">
                <Node pos="l" depth="5" NCoef="0" IVar="-1" Cut="0.0000000000000000e+00" cType="1" res="-3.3682513982057571e-02" rms="3.3911257982254028e-01" purity="1.3295945525169373e-01" nType="-99"/>
                <Node pos="r" depth="5" NCoef="0" IVar="-1" Cut="0.0000000000000000e+00" cType="1" res="-2.8716927394270897e-02" rms="3.8570398092269897e-01" purity="1.8297283351421356e-01" nType="-99"/>
              </Node>
              <Node pos="r" depth="4" NCoef="0" IVar="0" Cut="2.1428570747375488e+00" cType="1" res="-3.9453396201133728e-01" rms="2.4741429090499878e-01" purity="6.5667465329170227e-02" nType="0">
                <Node pos="l" depth="5" NCoef="0" IVar="-1" Cut="0.0000000000000000e+00" cType="1" res="-4.1813634335994720e-02" rms="2.0288048684597015e-01" purity="4.3025810271501541e-02" nType="-99"/>
                <Node pos="r" depth="5" NCoef="0" IVar="-1" Cut="0.0000000000000000e+00" cType="1" res="-3.8316112011671066e-02" rms="2.7204918861389160e-01" purity="8.0645777285099030e-02" nType="-99"/>
              </Node>
            </Node>
          </Node>
          <Node pos="r" depth="2" NCoef="0" IVar="0" Cut="1.3857142448425293e+01" cType="1" res="4.3381839990615845e-02" rms="4.9239212274551392e-01" purity="5.4734712839126587e-01" nType="0">
            <Node pos="l" depth="3" NCoef="0" IVar="10" Cut="4.2857403564453125e+02" cType="1" res="-5.7286679744720459e-02" rms="4.9260467290878296e-01" purity="4.3756717443466187e-01" nType="0">
              <Node pos="l" depth="4" NCoef="0" IVar="-1" Cut="0.0000000000000000e+00" cType="1" res="5.4580518044531345e-03" rms="4.9606332182884216e-01" purity="5.5986577272415161e-01" nType="-99"/>
              <Node pos="r" depth="4" NCoef="0" IVar="-1" Cut="0.0000000000000000e+00" cType="1" res="-1.9783336669206619e-02" rms="4.5058184862136841e-01" purity="2.8423327207565308e-01" nType="-99"/>
            </Node>
            <Node pos="r" depth="3" NCoef="0" IVar="-1" Cut="0.0000000000000000e+00" cType="1" res="1.8714934587478638e-02" rms="4.5510524511337280e-01" purity="7.0381426811218262e-01" nType="-99"/>
          </Node>
        </Node>
        <Node pos="r" depth="1" NCoef="0" IVar="-1" Cut="0.0000000000000000e+00" cType="1" res="3.5278350114822388e-02" rms="3.1749606132507324e-01" purity="8.8615298271179199e-01" nType="-99"/>
      </Node>
    </BinaryTree>
    <BinaryTree type="DecisionTree" boostWeight="1.0000000000000000e+00" itree="3">
      <Node pos="s" depth="0" NCoef="0" IVar="0" Cut="3.9238094329833984e+01" cType="1" res="-2.4616543669253588e-03" rms="4.7363018989562988e-01" purity="4.9742677807807922e-01" nType="0">
        <Node pos="l" depth="1" NCoef="0" IVar="0" Cut="7.2857141494750977e+00" cType="1" res="-1.3740670680999756e-01" rms="4.5870852470397949e-01" purity="3.4123319387435913e-01" nType="0">
          <Node pos="l" depth="2" NCoef="0" IVar="10" Cut="3.8095651245117188e+02" cType="1" res="-2.5928813219070435e-01" rms="3.9467662572860718e-01" purity="2.0217226445674896e-01" nType="0">
            <Node pos="l" depth="3" NCoef="0" IVar="0" Cut="3.1904761791229248e+00" cType="1" res="-1.4489945769309998e-01" rms="4.6843013167381287e-01" purity="3.3624437451362610e-01" nType="0">
              <Node pos="l" depth="4" NCoef="0" IVar="-1" Cut="0.0000000000000000e+00" cType="1" res="-2.3803802207112312e-02" rms="4.2226490378379822e-01" purity="2.3436638712882996e-01" nType="-99"/>
              <Node pos="r" depth="4" NCoef="0" IVar="-1" Cut="0.0000000000000000e+00" cType="1" res="-3.5645421594381332e-03" rms="4.9606826901435852e-01" purity="4.5688998699188232e-01" nType="-99"/>
            </Node>
            <Node pos="r" depth="3" NCoef="0" IVar="0" Cut="3.1904761791229248e+00" cType="1" res="-3.2996842265129089e-01" rms="3.2148939371109009e-01" purity="1.1932966858148575e-01" nType="0">
              <Node pos="l" depth="4" NCoef="0" IVar="12" Cut="5.9573077392578125e+02" cType="1" res="-3.6911255121231079e-01" rms="2.6253601908683777e-01" purity="7.5115486979484558e-02" nType="0">
                <Node pos="l" depth="5" NCoef="0" IVar="-1" Cut="0.0000000000000000e+00" cType="1" res="-3.3173535019159317e-02" rms="3.2678735256195068e-01" purity="1.2209749966859818e-01" nType="-99"/>
                <Node pos="r" depth="5" NCoef="0" IVar="12" Cut="7.8823809814453125e+02" cType="1" res="-3.9738795161247253e-01" rms="2.0161306858062744e-01" purity="4.2448155581951141e-02" nType="0">
                  <Node pos="l" depth="6" NCoef="0" IVar="-1" Cut="0.0000000000000000e+00" cType="1" res="-3.8689125329256058e-02" rms="2.3580664396286011e-01" purity="5.9018034487962723e-02" nType="-99"/>
                  <Node pos="r" depth="6" NCoef="0" IVar="-1" Cut="0.0000000000000000e+00" cType="1" res="-4.1738402098417282e-02" rms="1.6530770063400269e-01" purity="2.8147870674729347e-02" nType="-99"/>
                </Node>
              </Node>
              <Node pos="r" depth="4" NCoef="0" IVar="-1" Cut="0.0000000000000000e+00" cType="1" res="-2.5314260274171829e-02" rms="4.0412864089012146e-01" purity="2.0824982225894928e-01" nType="-99"/>
            </Node>
          </Node>
          <Node pos="r" depth="2" NCoef="0" IVar="12" Cut="4.2856652832031250e+02" cType="1" res="1.0403579473495483e-01" rms="4.8056122660636902e-01" purity="6.1670768260955811e-01" nType="0">
            <Node pos="l" depth="3" NCoef="0" IVar="-1" Cut="0.0000000000000000e+00" cType="1" res="1.9381999969482422e-02" rms="4.5026850700378418e-01" purity="7.1416765451431274e-01" nType="-99"/>
            <Node pos="r" depth="3" NCoef="0" IVar="-1" Cut="0.0000000000000000e+00" cType="1" res="-4.8735998570919037e-03" rms="4.9211066961288452e-01" purity="4.5021781325340271e-01" nType="-99"/>
          </Node>
        </Node>
        <Node pos="r" depth="1" NCoef="0" IVar="-1" Cut="0.0000000000000000e+00" cType="1" res="3.3683408051729202e-02" rms="3.1789770722389221e-01" purity="8.8578844070434570e-01" nType="-99"/>
      </Node>
    </BinaryTree>
    <BinaryTree type="DecisionTree" boostWeight="1.0000000000000000e+00" itree="4">
      <Node pos="s" depth="0" NCoef="0" IVar="0" Cut="3.8476188659667969e+01" cType="1" res="-2.7299376670271158e-03" rms="4.6548691391944885e-01" purity="4.9723199009895325e-01" nType="0">
        <Node pos="l" depth="1" NCoef="0" IVar="0" Cut="7.1428570747375488e+00" cType="1" res="-1.3488470017910004e-01" rms="4.5257264375686646e-01" purity="3.3650749921798706e-01" nType="0">
          <Node pos="l" depth="2" NCoef="0" IVar="10" Cut="3.8095495605468750e+02" cType="1" res="-2.4761228263378143e-01" rms="3.9200413227081299e-01" purity="2.0083339512348175e-01" nType="0">
            <Node pos="l" depth="3" NCoef="0" IVar="0" Cut="3.1904761791229248e+00" cType="1" res="-1.3389648497104645e-01" rms="4.6907386183738708e-01" purity="3.3964306116104126e-01" nType="0">
              <Node pos="l" depth="4" NCoef="0" IVar="-1" Cut="0.0000000000000000e+00" cType="1" res="-2.1257616579532623e-02" rms="4.3099498748779297e-01" purity="2.4849399924278259e-01" nType="-99"/>
              <Node pos="r" depth="4" NCoef="0" IVar="-1" Cut="0.0000000000000000e+00" cType="1" res="-3.9684916846454144e-03" rms="4.9567738175392151e-01" purity="4.5090067386627197e-01" nType="-99"/>
            </Node>
            <Node pos="r" depth="3" NCoef="0" IVar="0" Cut="4.1428570747375488e+00" cType="1" res="-3.1830275058746338e-01" rms="3.1524193286895752e-01" purity="1.1454353481531143e-01" nType="0">
              <Node pos="l" depth="4" NCoef="0" IVar="10" Cut="6.7573608398437500e+02" cType="1" res="-3.4075424075126648e-01" rms="2.8009176254272461e-01" purity="8.6720399558544159e-02" nType="0">
                <Node pos="l" depth="5" NCoef="0" IVar="0" Cut="2.0952382087707520e+00" cType="1" res="-3.1379714608192444e-01" rms="3.2238408923149109e-01" purity="1.1862656474113464e-01" nType="0">
                  <Node pos="l" depth="6" NCoef="0" IVar="-1" Cut="0.0000000000000000e+00" cType="1" res="-3.7325538694858551e-02" rms="2.4383167922496796e-01" purity="6.3588634133338928e-02" nType="-99"/>
                  <Node pos="r" depth="6" NCoef="0" IVar="-1" Cut="0.0000000000000000e+00" cType="1" res="-2.8658969327807426e-02" rms="3.5891860723495483e-01" purity="1.5278023481369019e-01" nType="-99"/>
                </Node>
                <Node pos="r" depth="5" NCoef="0" IVar="9" Cut="1.4285522460937500e+01" cType="1" res="-3.7415441870689392e-01" rms="2.1181428432464600e-01" purity="4.7188259661197662e-02" nType="0">
                  <Node pos="l" depth="6" NCoef="0" IVar="-1" Cut="0.0000000000000000e+00" cType="1" res="-3.7389013916254044e-02" rms="2.3190607130527496e-01" purity="5.7165428996086121e-02" nType="-99"/>
                  <Node pos="r" depth="6" NCoef="0" IVar="-1" Cut="0.0000000000000000e+00" cType="1" res="-3.9409924298524857e-02" rms="1.8770618736743927e-01" purity="3.6626711487770081e-02" nType="-99"/>
                </Node>
              </Node>
              <Node pos="r" depth="4" NCoef="0" IVar="-1" Cut="0.0000000000000000e+00" cType="1" res="-2.1430375054478645e-02" rms="4.2929896712303162e-01" purity="2.4543946981430054e-01" nType="-99"/>
            </Node>
          </Node>
          <Node pos="r" depth="2" NCoef="0" IVar="12" Cut="3.8094723510742188e+02" cType="1" res="9.3368776142597198e-02" rms="4.8017835617065430e-01" purity="6.1122345924377441e-01" nType="0">
            <Node pos="l" depth="3" NCoef="0" IVar="-1" Cut="0.0000000000000000e+00" cType="1" res="1.8391691148281097e-02" rms="4.4995906949043274e-01" purity="7.1444660425186157e-01" nType="-99"/>
            <Node pos="r" depth="3" NCoef="0" IVar="-1" Cut="0.0000000000000000e+00" cType="1" res="-3.0716350302100182e-03" rms="4.9285417795181274e-01" purity="4.6859520673751831e-01" nType="-99"/>
          </Node>
        </Node>
        <Node pos="r" depth="1" NCoef="0" IVar="-1" Cut="0.0000000000000000e+00" cType="1" res="3.2278552651405334e-02" rms="3.1804025173187256e-01" purity="8.8560336828231812e-01" nType="-99"/>
      </Node>
    </BinaryTree>
    <BinaryTree type="DecisionTree" boostWeight="1.0000000000000000e+00" itree="5">
      <Node pos="s" depth="0" NCoef="0" IVar="0" Cut="3.9238094329833984e+01" cType="1" res="-3.0869764741510153e-03" rms="4.5878481864929199e-01" purity="4.9609503149986267e-01" nType="0">
        <Node pos="l" depth="1" NCoef="0" IVar="0" Cut="5.5238094329833984e+00" cType="1" res="-1.2365303933620453e-01" rms="4.5018094778060913e-01" purity="3.4132412075996399e-01" nType="0">
          <Node pos="l" depth="2" NCoef="0" IVar="10" Cut="3.3333743286132812e+02" cType="1" res="-2.6972642540931702e-01" rms="3.5730114579200745e-01" purity="1.5663312375545502e-01" nType="0">
            <Node pos="l" depth="3" NCoef="0" IVar="12" Cut="1.5377949523925781e+02" cType="1" res="-1.6563241183757782e-01" rms="4.5285367965698242e-01" purity="2.9168069362640381e-01" nType="0">
              <Node pos="l" depth="4" NCoef="0" IVar="-1" Cut="0.0000000000000000e+00" cType="1" res="-1.2920790351927280e-02" rms="4.6868404746055603e-01" purity="3.3002579212188721e-01" nType="-99"/>
              <Node pos="r" depth="4" NCoef="0" IVar="-1" Cut="0.0000000000000000e+00" cType="1" res="-1.9768092781305313e-02" rms="4.3719756603240967e-01" purity="2.6047998666763306e-01" nType="-99"/>
            </Node>
            <Node pos="r" depth="3" NCoef="0" IVar="0" Cut="3.1428570747375488e+00" cType="1" res="-3.1338852643966675e-01" rms="2.9789641499519348e-01" purity="9.9987603724002838e-02" nType="0">
              <Node pos="l" depth="4" NCoef="0" IVar="12" Cut="5.9775292968750000e+02" cType="1" res="-3.3186542987823486e-01" rms="2.6868748664855957e-01" purity="7.9128578305244446e-02" nType="0">
                <Node pos="l" depth="5" NCoef="0" IVar="-1" Cut="0.0000000000000000e+00" cType="1" res="-3.1826518476009369e-02" rms="3.1392028927803040e-01" purity="1.1133151501417160e-01" nType="-99"/>
                <Node pos="r" depth="5" NCoef="0" IVar="3" Cut="1.6456594467163086e+00" cType="1" res="-3.4986063838005066e-01" rms="2.2241027653217316e-01" purity="5.2226386964321136e-02" nType="0">
                  <Node pos="l" depth="6" NCoef="0" IVar="-1" Cut="0.0000000000000000e+00" cType="1" res="-3.4836381673812866e-02" rms="2.5027197599411011e-01" purity="6.7138187587261200e-02" nType="-99"/>
                  <Node pos="r" depth="6" NCoef="0" IVar="-1" Cut="0.0000000000000000e+00" cType="1" res="-3.8077354431152344e-02" rms="1.8592810630798340e-01" purity="3.5932287573814392e-02" nType="-99"/>
                </Node>
              </Node>
              <Node pos="r" depth="4" NCoef="0" IVar="-1" Cut="0.0000000000000000e+00" cType="1" res="-2.4712178856134415e-02" rms="3.8339331746101379e-01" purity="1.8169194459915161e-01" nType="-99"/>
            </Node>
          </Node>
          <Node pos="r" depth="2" NCoef="0" IVar="12" Cut="2.8571295166015625e+02" cType="1" res="4.2132340371608734e-02" rms="4.8588150739669800e-01" purity="5.5093836784362793e-01" nType="0">
            <Node pos="l" depth="3" NCoef="0" IVar="-1" Cut="0.0000000000000000e+00" cType="1" res="1.5769500285387039e-02" rms="4.5889282226562500e-01" purity="6.8949198722839355e-01" nType="-99"/>
            <Node pos="r" depth="3" NCoef="0" IVar="0" Cut="1.3857142448425293e+01" cType="1" res="-5.1871452480554581e-02" rms="4.8720329999923706e-01" purity="4.3735718727111816e-01" nType="0">
              <Node pos="l" depth="4" NCoef="0" IVar="12" Cut="5.2380615234375000e+02" cType="1" res="-1.1301890760660172e-01" rms="4.7465464472770691e-01" purity="3.5801291465759277e-01" nType="0">
                <Node pos="l" depth="5" NCoef="0" IVar="-1" Cut="0.0000000000000000e+00" cType="1" res="-2.2569342982023954e-03" rms="4.9662220478057861e-01" purity="4.6645364165306091e-01" nType="-99"/>
                <Node pos="r" depth="5" NCoef="0" IVar="-1" Cut="0.0000000000000000e+00" cType="1" res="-1.8154289573431015e-02" rms="4.4600048661231995e-01" purity="2.7766892313957214e-01" nType="-99"/>
              </Node>
              <Node pos="r" depth="4" NCoef="0" IVar="-1" Cut="0.0000000000000000e+00" cType="1" res="6.7076175473630428e-03" rms="4.8933443427085876e-01" purity="5.9139919281005859e-01" nType="-99"/>
            </Node>
          </Node>
        </Node>
        <Node pos="r" depth="1" NCoef="0" IVar="-1" Cut="0.0000000000000000e+00" cType="1" res="3.0836097896099091e-02" rms="3.1956052780151367e-01" purity="8.8443225622177124e-01" nType="-99"/>
      </Node>
    </BinaryTree>
    <BinaryTree type="DecisionTree" boostWeight="1.0000000000000000e+00" itree="6">
      <Node pos="s" depth="0" NCoef="0" IVar="8" Cut="4.7717372894287109e+01" cType="1" res="-2.2571249864995480e-03" rms="4.5127215981483459e-01" purity="4.9783280491828918e-01" nType="0">
        <Node pos="l" depth="1" NCoef="0" IVar="10" Cut="3.3333752441406250e+02" cType="1" res="-1.3226813077926636e-01" rms="4.3938776850700378e-01" purity="3.2393634319305420e-01" nType="0">
          <Node pos="l" depth="2" NCoef="0" IVar="8" Cut="4.6574726104736328e+00" cType="1" res="1.1003814637660980e-02" rms="4.7976788878440857e-01" purity="5.1470804214477539e-01" nType="0">
            <Node pos="l" depth="3" NCoef="0" IVar="7" Cut="9.8822265863418579e-01" cType="1" res="-1.3240723311901093e-01" rms="4.5924344658851624e-01" purity="3.3146482706069946e-01" nType="0">
              <Node pos="l" depth="4" NCoef="0" IVar="-1" Cut="0.0000000000000000e+00" cType="1" res="-7.2561567649245262e-03" rms="4.7823420166969299e-01" purity="4.1072785854339600e-01" nType="-99"/>
              <Node pos="r" depth="4" NCoef="0" IVar="-1" Cut="0.0000000000000000e+00" cType="1" res="-1.9621890038251877e-02" rms="4.3057790398597717e-01" purity="2.5102937221527100e-01" nType="-99"/>
            </Node>
            <Node pos="r" depth="3" NCoef="0" IVar="8" Cut="1.2859197616577148e+01" cType="1" res="1.0471986979246140e-01" rms="4.6962633728981018e-01" purity="6.3445347547531128e-01" nType="0">
              <Node pos="l" depth="4" NCoef="0" IVar="-1" Cut="0.0000000000000000e+00" cType="1" res="5.1019005477428436e-03" rms="4.8192349076271057e-01" purity="5.6287330389022827e-01" nType="-99"/>
              <Node pos="r" depth="4" NCoef="0" IVar="-1" Cut="0.0000000000000000e+00" cType="1" res="1.5690812841057777e-02" rms="4.5208919048309326e-01" purity="7.0110249519348145e-01" nType="-99"/>
            </Node>
          </Node>
          <Node pos="r" depth="2" NCoef="0" IVar="8" Cut="1.1456432342529297e+01" cType="1" res="-2.2681787610054016e-01" rms="3.8220655918121338e-01" purity="1.9803999364376068e-01" nType="0">
            <Node pos="l" depth="3" NCoef="0" IVar="12" Cut="7.5938348388671875e+02" cType="1" res="-2.6699393987655640e-01" rms="3.4029093384742737e-01" purity="1.4298614859580994e-01" nType="0">
              <Node pos="l" depth="4" NCoef="0" IVar="8" Cut="3.9021096229553223e+00" cType="1" res="-2.3841005563735962e-01" rms="3.7285330891609192e-01" purity="1.7735056579113007e-01" nType="0">
                <Node pos="l" depth="5" NCoef="0" IVar="7" Cut="1.3839017152786255e+00" cType="1" res="-2.7796155214309692e-01" rms="3.2983258366584778e-01" purity="1.2908752262592316e-01" nType="0">
                  <Node pos="l" depth="6" NCoef="0" IVar="-1" Cut="0.0000000000000000e+00" cType="1" res="-2.6768289506435394e-02" rms="3.5380989313125610e-01" purity="1.5321707725524902e-01" nType="-99"/>
                  <Node pos="r" depth="6" NCoef="0" IVar="-1" Cut="0.0000000000000000e+00" cType="1" res="-3.2316327095031738e-02" rms="2.8320217132568359e-01" purity="8.9406669139862061e-02" nType="-99"/>
                </Node>
                <Node pos="r" depth="5" NCoef="0" IVar="-1" Cut="0.0000000000000000e+00" cType="1" res="-1.7510982230305672e-02" rms="4.2839202284812927e-01" purity="2.5999614596366882e-01" nType="-99"/>
              </Node>
              <Node pos="r" depth="4" NCoef="0" IVar="11" Cut="1.4286137580871582e+01" cType="1" res="-3.2597830891609192e-01" rms="2.5042679905891418e-01" purity="7.2073332965373993e-02" nType="0">
                <Node pos="l" depth="5" NCoef="0" IVar="-1" Cut="0.0000000000000000e+00" cType="1" res="-3.4988172352313995e-02" rms="2.3693209886550903e-01" purity="6.5737970173358917e-02" nType="-99"/>
                <Node pos="r" depth="5" NCoef="0" IVar="-1" Cut="0.0000000000000000e+00" cType="1" res="-3.3301249146461487e-02" rms="2.6293110847473145e-01" purity="7.8394986689090729e-02" nType="-99"/>
              </Node>
            </Node>
            <Node pos="r" depth="3" NCoef="0" IVar="-1" Cut="0.0000000000000000e+00" cType="1" res="-8.3624012768268585e-03" rms="4.7759869694709778e-01" purity="3.9535123109817505e-01" nType="-99"/>
          </Node>
        </Node>
        <Node pos="r" depth="1" NCoef="0" IVar="-1" Cut="0.0000000000000000e+00" cType="1" res="2.7703717350959778e-02" rms="3.4339809417724609e-01" purity="8.5829764604568481e-01" nType="-99"/>
      </Node>
    </BinaryTree>
    <BinaryTree type="DecisionTree" boostWeight="1.0000000000000000e+00" itree="7">
      <Node pos="s" depth="0" NCoef="0" IVar="0" Cut="3.9238094329833984e+01" cType="1" res="-2.1465623285621405e-03" rms="4.4632878899574280e-01" purity="4.9721205234527588e-01" nType="0">
        <Node pos="l" depth="1" NCoef="0" IVar="0" Cut="5.5238094329833984e+00" cType="1" res="-1.1480580270290375e-01" rms="4.4227111339569092e-01" purity="3.3854684233665466e-01" nType="0">
          <Node pos="l" depth="2" NCoef="0" IVar="12" Cut="3.3333428955078125e+02" cType="1" res="-2.4663324654102325e-01" rms="3.5384142398834229e-01" purity="1.5626780688762665e-01" nType="0">
            <Node pos="l" depth="3" NCoef="0" IVar="11" Cut="1.4285763740539551e+01" cType="1" res="-1.4188484847545624e-01" rms="4.5678970217704773e-01" purity="3.0292651057243347e-01" nType="0">
              <Node pos="l" depth="4" NCoef="0" IVar="-1" Cut="0.0000000000000000e+00" cType="1" res="-1.7547473311424255e-02" rms="4.4113236665725708e-01" purity="2.6908695697784424e-01" nType="-99"/>
              <Node pos="r" depth="4" NCoef="0" IVar="-1" Cut="0.0000000000000000e+00" cType="1" res="-1.0485571809113026e-02" rms="4.7258001565933228e-01" purity="3.4463077783584595e-01" nType="-99"/>
            </Node>
            <Node pos="r" depth="3" NCoef="0" IVar="0" Cut="2.1428570747375488e+00" cType="1" res="-2.9182565212249756e-01" rms="2.8709366917610168e-01" purity="9.2993713915348053e-02" nType="0">
              <Node pos="l" depth="4" NCoef="0" IVar="3" Cut="1.4960669279098511e+00" cType="1" res="0.0000000000000000e+00" rms="0.0000000000000000e+00" purity="3.9365358650684357e-02" nType="0">
                <Node pos="l" depth="5" NCoef="0" IVar="-1" Cut="0.0000000000000000e+00" cType="1" res="-3.5476095974445343e-02" rms="2.0466105639934540e-01" purity="4.4399991631507874e-02" nType="-99"/>
                <Node pos="r" depth="5" NCoef="0" IVar="-1" Cut="0.0000000000000000e+00" cType="1" res="-3.6525167524814606e-02" rms="1.8080264329910278e-01" purity="3.4356500953435898e-02" nType="-99"/>
              </Node>
              <Node pos="r" depth="4" NCoef="0" IVar="10" Cut="5.0893371582031250e+02" cType="1" res="-2.6308855414390564e-01" rms="3.2906922698020935e-01" purity="1.2629447877407074e-01" nType="0">
                <Node pos="l" depth="5" NCoef="0" IVar="-1" Cut="0.0000000000000000e+00" cType="1" res="-2.0756034180521965e-02" rms="4.0272390842437744e-01" purity="2.0538282394409180e-01" nType="-99"/>
                <Node pos="r" depth="5" NCoef="0" IVar="3" Cut="1.4958859682083130e+00" cType="1" res="-2.9143923521041870e-01" rms="2.8545409440994263e-01" purity="9.0771898627281189e-02" nType="0">
                  <Node pos="l" depth="6" NCoef="0" IVar="-1" Cut="0.0000000000000000e+00" cType="1" res="-2.8501752763986588e-02" rms="3.1512141227722168e-01" purity="1.1360020190477371e-01" nType="-99"/>
                  <Node pos="r" depth="6" NCoef="0" IVar="-1" Cut="0.0000000000000000e+00" cType="1" res="-3.3021371811628342e-02" rms="2.5409176945686340e-01" purity="7.0181295275688171e-02" nType="-99"/>
                </Node>
              </Node>
            </Node>
          </Node>
          <Node pos="r" depth="2" NCoef="0" IVar="12" Cut="4.2856423950195312e+02" cType="1" res="3.5766560584306717e-02" rms="4.8321056365966797e-01" purity="5.4674470424652100e-01" nType="0">
            <Node pos="l" depth="3" NCoef="0" IVar="0" Cut="1.0714285850524902e+01" cType="1" res="1.1085913330316544e-01" rms="4.7132408618927002e-01" purity="6.5016245841979980e-01" nType="0">
              <Node pos="l" depth="4" NCoef="0" IVar="-1" Cut="0.0000000000000000e+00" cType="1" res="1.8255269387736917e-03" rms="4.9651640653610229e-01" purity="5.3626024723052979e-01" nType="-99"/>
              <Node pos="r" depth="4" NCoef="0" IVar="-1" Cut="0.0000000000000000e+00" cType="1" res="1.8693460151553154e-02" rms="4.3657189607620239e-01" purity="7.4050301313400269e-01" nType="-99"/>
            </Node>
            <Node pos="r" depth="3" NCoef="0" IVar="0" Cut="9.1428575515747070e+00" cType="1" res="-7.1233697235584259e-02" rms="4.7976621985435486e-01" purity="3.9938348531723022e-01" nType="0">
              <Node pos="l" depth="4" NCoef="0" IVar="-1" Cut="0.0000000000000000e+00" cType="1" res="-1.4401406981050968e-02" rms="4.5423421263694763e-01" purity="2.9677817225456238e-01" nType="-99"/>
              <Node pos="r" depth="4" NCoef="0" IVar="-1" Cut="0.0000000000000000e+00" cType="1" res="-2.6188517222180963e-04" rms="4.9384415149688721e-01" purity="4.9941110610961914e-01" nType="-99"/>
            </Node>
          </Node>
        </Node>
        <Node pos="r" depth="1" NCoef="0" IVar="-1" Cut="0.0000000000000000e+00" cType="1" res="2.8881261125206947e-02" rms="3.1710264086723328e-01" purity="8.8640713691711426e-01" nType="-99"/>
      </Node>
    </BinaryTree>
    <BinaryTree type="DecisionTree" boostWeight="1.0000000000000000e+00" itree="8">
      <Node pos="s" depth="0" NCoef="0" IVar="8" Cut="4.7731155395507812e+01" cType="1" res="-1.4753246214240789e-03" rms="4.4007274508476257e-01" purity="4.9835798144340515e-01" nType="0">
        <Node pos="l" depth="1" NCoef="0" IVar="12" Cut="2.8571438598632812e+02" cType="1" res="-1.1982838064432144e-01" rms="4.3333372473716736e-01" purity="3.2362285256385803e-01" nType="0">
          <Node pos="l" depth="2" NCoef="0" IVar="8" Cut="4.6589469909667969e+00" cType="1" res="2.0818535238504410e-02" rms="4.7571715712547302e-01" purity="5.2814245223999023e-01" nType="0">
            <Node pos="l" depth="3" NCoef="0" IVar="-1" Cut="0.0000000000000000e+00" cType="1" res="-9.8739312961697578e-03" rms="4.6605560183525085e-01" purity="3.5726398229598999e-01" nType="-99"/>
            <Node pos="r" depth="3" NCoef="0" IVar="11" Cut="4.7619624137878418e+00" cType="1" res="9.7871549427509308e-02" rms="4.6605703234672546e-01" purity="6.3965213298797607e-01" nType="0">
              <Node pos="l" depth="4" NCoef="0" IVar="-1" Cut="0.0000000000000000e+00" cType="1" res="9.2072198167443275e-03" rms="4.6678271889686584e-01" purity="6.3121449947357178e-01" nType="-99"/>
              <Node pos="r" depth="4" NCoef="0" IVar="-1" Cut="0.0000000000000000e+00" cType="1" res="1.0654858313500881e-02" rms="4.6524670720100403e-01" purity="6.4779847860336304e-01" nType="-99"/>
            </Node>
          </Node>
          <Node pos="r" depth="2" NCoef="0" IVar="8" Cut="9.1923923492431641e+00" cType="1" res="-1.9355542957782745e-01" rms="3.8958472013473511e-01" purity="2.1641378104686737e-01" nType="0">
            <Node pos="l" depth="3" NCoef="0" IVar="7" Cut="5.5663669109344482e-01" cType="1" res="-2.4140633642673492e-01" rms="3.4004878997802734e-01" purity="1.4417268335819244e-01" nType="0">
              <Node pos="l" depth="4" NCoef="0" IVar="-1" Cut="0.0000000000000000e+00" cType="1" res="-1.5893870964646339e-02" rms="4.2021003365516663e-01" purity="2.6088872551918030e-01" nType="-99"/>
              <Node pos="r" depth="4" NCoef="0" IVar="0" Cut="3.3809523582458496e+00" cType="1" res="-2.5863665342330933e-01" rms="3.1945195794105530e-01" purity="1.2167640775442123e-01" nType="0">
                <Node pos="l" depth="5" NCoef="0" IVar="0" Cut="2.0476191043853760e+00" cType="1" res="-2.8860965371131897e-01" rms="2.6801097393035889e-01" purity="7.9650491476058960e-02" nType="0">
                  <Node pos="l" depth="6" NCoef="0" IVar="-1" Cut="0.0000000000000000e+00" cType="1" res="-3.3767666667699814e-02" rms="2.1844661235809326e-01" purity="5.1748216152191162e-02" nType="-99"/>
                  <Node pos="r" depth="6" NCoef="0" IVar="-1" Cut="0.0000000000000000e+00" cType="1" res="-2.8196537867188454e-02" rms="3.1076657772064209e-01" purity="1.0971384495496750e-01" nType="-99"/>
                </Node>
                <Node pos="r" depth="5" NCoef="0" IVar="-1" Cut="0.0000000000000000e+00" cType="1" res="-1.8983842805027962e-02" rms="4.1302049160003662e-01" purity="2.2817839682102203e-01" nType="-99"/>
              </Node>
            </Node>
            <Node pos="r" depth="3" NCoef="0" IVar="8" Cut="2.0202844619750977e+01" cType="1" res="-6.9747351109981537e-02" rms="4.7332763671875000e-01" purity="4.0332838892936707e-01" nType="0">
              <Node pos="l" depth="4" NCoef="0" IVar="-1" Cut="0.0000000000000000e+00" cType="1" res="-1.2430994771420956e-02" rms="4.5561692118644714e-01" purity="3.3549192547798157e-01" nType="-99"/>
              <Node pos="r" depth="4" NCoef="0" IVar="-1" Cut="0.0000000000000000e+00" cType="1" res="3.6517879925668240e-04" rms="4.8777544498443604e-01" purity="4.9857622385025024e-01" nType="-99"/>
            </Node>
          </Node>
        </Node>
        <Node pos="r" depth="1" NCoef="0" IVar="-1" Cut="0.0000000000000000e+00" cType="1" res="2.5719821453094482e-02" rms="3.4262076020240784e-01" purity="8.5858452320098877e-01" nType="-99"/>
      </Node>
    </BinaryTree>
    <BinaryTree type="DecisionTree" boostWeight="1.0000000000000000e+00" itree="9">
      <Node pos="s" depth="0" NCoef="0" IVar="8" Cut="4.7731128692626953e+01" cType="1" res="4.4639208354055882e-03" rms="4.3715134263038635e-01" purity="5.0334393978118896e-01" nType="0">
        <Node pos="l" depth="1" NCoef="0" IVar="8" Cut="9.1927566528320312e+00" cType="1" res="-1.0234096646308899e-01" rms="4.3603247404098511e-01" purity="3.3559814095497131e-01" nType="0">
          <Node pos="l" depth="2" NCoef="0" IVar="0" Cut="6.1904764175415039e+00" cType="1" res="-1.7128023505210876e-01" rms="3.9740785956382751e-01" purity="2.3116454482078552e-01" nType="0">
            <Node pos="l" depth="3" NCoef="0" IVar="10" Cut="3.3333770751953125e+02" cType="1" res="-2.1032486855983734e-01" rms="3.6762726306915283e-01" purity="1.7456109821796417e-01" nType="0">
              <Node pos="l" depth="4" NCoef="0" IVar="9" Cut="-4.7618613243103027e+00" cType="1" res="-1.2561367452144623e-01" rms="4.5904254913330078e-01" purity="3.1506261229515076e-01" nType="0">
                <Node pos="l" depth="5" NCoef="0" IVar="-1" Cut="0.0000000000000000e+00" cType="1" res="-1.6805598512291908e-02" rms="4.3961077928543091e-01" purity="2.7021038532257080e-01" nType="-99"/>
                <Node pos="r" depth="5" NCoef="0" IVar="-1" Cut="0.0000000000000000e+00" cType="1" res="-9.4046788290143013e-03" rms="4.7237378358840942e-01" purity="3.5307189822196960e-01" nType="-99"/>
              </Node>
              <Node pos="r" depth="4" NCoef="0" IVar="0" Cut="2.1904761791229248e+00" cType="1" res="-2.4812789261341095e-01" rms="3.1111833453178406e-01" purity="1.1186123639345169e-01" nType="0">
                <Node pos="l" depth="5" NCoef="0" IVar="-1" Cut="0.0000000000000000e+00" cType="1" res="-3.1785454601049423e-02" rms="2.3231595754623413e-01" purity="5.8104950934648514e-02" nType="-99"/>
                <Node pos="r" depth="5" NCoef="0" IVar="12" Cut="7.7702203369140625e+02" cType="1" res="-2.2496096789836884e-01" rms="3.4748968482017517e-01" purity="1.4374069869518280e-01" nType="0">
                  <Node pos="l" depth="6" NCoef="0" IVar="-1" Cut="0.0000000000000000e+00" cType="1" res="-2.1743331104516983e-02" rms="3.7437307834625244e-01" purity="1.7203256487846375e-01" nType="-99"/>
                  <Node pos="r" depth="6" NCoef="0" IVar="-1" Cut="0.0000000000000000e+00" cType="1" res="-3.0193937942385674e-02" rms="2.6760652661323547e-01" purity="7.7393412590026855e-02" nType="-99"/>
                </Node>
              </Node>
            </Node>
            <Node pos="r" depth="3" NCoef="0" IVar="-1" Cut="0.0000000000000000e+00" cType="1" res="4.9301390536129475e-03" rms="4.7886246442794800e-01" purity="5.4999542236328125e-01" nType="-99"/>
          </Node>
          <Node pos="r" depth="2" NCoef="0" IVar="12" Cut="4.7618508911132812e+02" cType="1" res="3.5886686295270920e-02" rms="4.7543007135391235e-01" purity="5.4499429464340210e-01" nType="0">
            <Node pos="l" depth="3" NCoef="0" IVar="4" Cut="-1.4960190653800964e-01" cType="1" res="1.0486923903226852e-01" rms="4.6549338102340698e-01" purity="6.4748930931091309e-01" nType="0">
              <Node pos="l" depth="4" NCoef="0" IVar="-1" Cut="0.0000000000000000e+00" cType="1" res="1.1548783630132675e-02" rms="4.6246695518493652e-01" purity="6.5667134523391724e-01" nType="-99"/>
              <Node pos="r" depth="4" NCoef="0" IVar="-1" Cut="0.0000000000000000e+00" cType="1" res="9.7577292472124100e-03" rms="4.6844387054443359e-01" purity="6.3795882463455200e-01" nType="-99"/>
            </Node>
            <Node pos="r" depth="3" NCoef="0" IVar="-1" Cut="0.0000000000000000e+00" cType="1" res="-8.2484791055321693e-03" rms="4.6921238303184509e-01" purity="3.7140882015228271e-01" nType="-99"/>
          </Node>
        </Node>
        <Node pos="r" depth="1" NCoef="0" IVar="-1" Cut="0.0000000000000000e+00" cType="1" res="2.4691494181752205e-02" rms="3.4377816319465637e-01" purity="8.5764122009277344e-01" nType="-99"/>
      </Node>
    </BinaryTree>
    <BinaryTree type="DecisionTree" boostWeight="1.0000000000000000e+00" itree="10">
      <Node pos="s" depth="0" NCoef="0" IVar="0" Cut="3.9238094329833984e+01" cType="1" res="2.1646285895258188e-03" rms="4.3281650543212891e-01" purity="5.0093775987625122e-01" nType="0">
        <Node pos="l" depth="1" NCoef="0" IVar="0" Cut="5.5238094329833984e+00" cType="1" res="-9.2337444424629211e-02" rms="4.3671497702598572e-01" purity="3.4682232141494751e-01" nType="0">
          <Node pos="l" depth="2" NCoef="0" IVar="12" Cut="3.8095257568359375e+02" cType="1" res="-2.0896326005458832e-01" rms="3.5710445046424866e-01" purity="1.6235524415969849e-01" nType="0">
            <Node pos="l" depth="3" NCoef="0" IVar="6" Cut="1.8570317029953003e+00" cType="1" res="-1.3194048404693604e-01" rms="4.4850471615791321e-01" purity="2.8836965560913086e-01" nType="0">
              <Node pos="l" depth="4" NCoef="0" IVar="-1" Cut="0.0000000000000000e+00" cType="1" res="-1.6834501177072525e-02" rms="4.3226644396781921e-01" purity="2.5573873519897461e-01" nType="-99"/>
              <Node pos="r" depth="4" NCoef="0" IVar="-1" Cut="0.0000000000000000e+00" cType="1" res="-9.5836184918880463e-03" rms="4.6481412649154663e-01" purity="3.2856792211532593e-01" nType="-99"/>
            </Node>
            <Node pos="r" depth="3" NCoef="0" IVar="12" Cut="6.7573608398437500e+02" cType="1" res="-2.5223636627197266e-01" rms="2.8451603651046753e-01" purity="9.1557525098323822e-02" nType="0">
              <Node pos="l" depth="4" NCoef="0" IVar="0" Cut="2.1428570747375488e+00" cType="1" res="-2.2827285528182983e-01" rms="3.2674422860145569e-01" purity="1.2480888515710831e-01" nType="0">
                <Node pos="l" depth="5" NCoef="0" IVar="-1" Cut="0.0000000000000000e+00" cType="1" res="-3.1144639477133751e-02" rms="2.3386813700199127e-01" purity="5.8781214058399200e-02" nType="-99"/>
                <Node pos="r" depth="5" NCoef="0" IVar="-1" Cut="0.0000000000000000e+00" cType="1" res="-2.1452642977237701e-02" rms="3.6851054430007935e-01" purity="1.6468681395053864e-01" nType="-99"/>
              </Node>
              <Node pos="r" depth="4" NCoef="0" IVar="3" Cut="1.4961106777191162e+00" cType="1" res="-2.8195399045944214e-01" rms="2.1758592128753662e-01" purity="5.0321865826845169e-02" nType="0">
                <Node pos="l" depth="5" NCoef="0" IVar="-1" Cut="0.0000000000000000e+00" cType="1" res="-3.0129889026284218e-02" rms="2.4685716629028320e-01" purity="6.5712347626686096e-02" nType="-99"/>
                <Node pos="r" depth="5" NCoef="0" IVar="-1" Cut="0.0000000000000000e+00" cType="1" res="-3.3400498330593109e-02" rms="1.8447785079479218e-01" purity="3.5692632198333740e-02" nType="-99"/>
              </Node>
            </Node>
          </Node>
          <Node pos="r" depth="2" NCoef="0" IVar="12" Cut="4.2856671142578125e+02" cType="1" res="3.9434768259525299e-02" rms="4.7894871234893799e-01" purity="5.5524647235870361e-01" nType="0">
            <Node pos="l" depth="3" NCoef="0" IVar="0" Cut="1.0714285850524902e+01" cType="1" res="1.0717839747667313e-01" rms="4.6736317873001099e-01" purity="6.5862762928009033e-01" nType="0">
              <Node pos="l" depth="4" NCoef="0" IVar="-1" Cut="0.0000000000000000e+00" cType="1" res="3.9245076477527618e-03" rms="4.9422320723533630e-01" purity="5.5981117486953735e-01" nType="-99"/>
              <Node pos="r" depth="4" NCoef="0" IVar="-1" Cut="0.0000000000000000e+00" cType="1" res="1.6847463324666023e-02" rms="4.3561398983001709e-01" purity="7.4109917879104614e-01" nType="-99"/>
            </Node>
            <Node pos="r" depth="3" NCoef="0" IVar="0" Cut="9.1428575515747070e+00" cType="1" res="-5.7574342936277390e-02" rms="4.7865346074104309e-01" purity="4.0720430016517639e-01" nType="0">
              <Node pos="l" depth="4" NCoef="0" IVar="-1" Cut="0.0000000000000000e+00" cType="1" res="-1.3125804252922535e-02" rms="4.5336025953292847e-01" purity="2.9313907027244568e-01" nType="-99"/>
              <Node pos="r" depth="4" NCoef="0" IVar="-1" Cut="0.0000000000000000e+00" cType="1" res="8.2417641533538699e-04" rms="4.9224868416786194e-01" purity="5.1425909996032715e-01" nType="-99"/>
            </Node>
          </Node>
        </Node>
        <Node pos="r" depth="1" NCoef="0" IVar="-1" Cut="0.0000000000000000e+00" cType="1" res="2.6131546124815941e-02" rms="3.1743875145912170e-01" purity="8.8607764244079590e-01" nType="-99"/>
      </Node>
    </BinaryTree>
    <BinaryTree type="DecisionTree" boostWeight="1.0000000000000000e+00" itree="11">
      <Node pos="s" depth="0" NCoef="0" IVar="0" Cut="3.9238094329833984e+01" cType="1" res="-1.4355564489960670e-03" rms="4.2722663283348083e-01" purity="4.9798119068145752e-01" nType="0">
        <Node pos="l" depth="1" NCoef="0" IVar="0" Cut="5.5238094329833984e+00" cType="1" res="-9.2803657054901123e-02" rms="4.3140280246734619e-01" purity="3.4241572022438049e-01" nType="0">
          <Node pos="l" depth="2" NCoef="0" IVar="10" Cut="3.3333782958984375e+02" cType="1" res="-2.0610161125659943e-01" rms="3.4934973716735840e-01" purity="1.5479576587677002e-01" nType="0">
            <Node pos="l" depth="3" NCoef="0" IVar="3" Cut="1.4960781335830688e+00" cType="1" res="-1.2467558681964874e-01" rms="4.5278590917587280e-01" purity="2.9750615358352661e-01" nType="0">
              <Node pos="l" depth="4" NCoef="0" IVar="-1" Cut="0.0000000000000000e+00" cType="1" res="-1.6888342797756195e-02" rms="4.3173524737358093e-01" purity="2.5501415133476257e-01" nType="-99"/>
              <Node pos="r" depth="4" NCoef="0" IVar="-1" Cut="0.0000000000000000e+00" cType="1" res="-9.5362477004528046e-03" rms="4.6659976243972778e-01" purity="3.3162969350814819e-01" nType="-99"/>
            </Node>
            <Node pos="r" depth="3" NCoef="0" IVar="12" Cut="5.9775396728515625e+02" cType="1" res="-2.4100941419601440e-01" rms="2.8707948327064514e-01" purity="9.3615002930164337e-02" nType="0">
              <Node pos="l" depth="4" NCoef="0" IVar="9" Cut="4.7612876892089844e+00" cType="1" res="-2.0999720692634583e-01" rms="3.4421935677528381e-01" purity="1.4002017676830292e-01" nType="0">
                <Node pos="l" depth="5" NCoef="0" IVar="-1" Cut="0.0000000000000000e+00" cType="1" res="-1.9747566431760788e-02" rms="3.7372633814811707e-01" purity="1.7045079171657562e-01" nType="-99"/>
                <Node pos="r" depth="5" NCoef="0" IVar="-1" Cut="0.0000000000000000e+00" cType="1" res="-2.6705937460064888e-02" rms="3.0656644701957703e-01" purity="1.0778278857469559e-01" nType="-99"/>
              </Node>
              <Node pos="r" depth="4" NCoef="0" IVar="3" Cut="1.7952630519866943e+00" cType="1" res="-2.6765942573547363e-01" rms="2.2333738207817078e-01" purity="5.3737252950668335e-02" nType="0">
                <Node pos="l" depth="5" NCoef="0" IVar="-1" Cut="0.0000000000000000e+00" cType="1" res="-2.8639817610383034e-02" rms="2.5801116228103638e-01" purity="7.3144800961017609e-02" nType="-99"/>
                <Node pos="r" depth="5" NCoef="0" IVar="-1" Cut="0.0000000000000000e+00" cType="1" res="-3.3655699342489243e-02" rms="1.5985779464244843e-01" purity="2.6610141620039940e-02" nType="-99"/>
              </Node>
            </Node>
          </Node>
          <Node pos="r" depth="2" NCoef="0" IVar="0" Cut="1.3857142448425293e+01" cType="1" res="3.4613572061061859e-02" rms="4.7695264220237732e-01" purity="5.5341708660125732e-01" nType="0">
            <Node pos="l" depth="3" NCoef="0" IVar="12" Cut="3.8094705200195312e+02" cType="1" res="-3.8760811090469360e-02" rms="4.8256397247314453e-01" purity="4.4515883922576904e-01" nType="0">
              <Node pos="l" depth="4" NCoef="0" IVar="-1" Cut="0.0000000000000000e+00" cType="1" res="5.1123667508363724e-03" rms="4.9224013090133667e-01" purity="5.8382904529571533e-01" nType="-99"/>
              <Node pos="r" depth="4" NCoef="0" IVar="-1" Cut="0.0000000000000000e+00" cType="1" res="-1.3909853063523769e-02" rms="4.5229914784431458e-01" purity="2.9489070177078247e-01" nType="-99"/>
            </Node>
            <Node pos="r" depth="3" NCoef="0" IVar="-1" Cut="0.0000000000000000e+00" cType="1" res="1.4333370141685009e-02" rms="4.4835603237152100e-01" purity="7.0844614505767822e-01" nType="-99"/>
          </Node>
        </Node>
        <Node pos="r" depth="1" NCoef="0" IVar="-1" Cut="0.0000000000000000e+00" cType="1" res="2.5230461731553078e-02" rms="3.1752365827560425e-01" purity="8.8599771261215210e-01" nType="-99"/>
      </Node>
    </BinaryTree>
    <BinaryTree type="DecisionTree" boostWeight="1.0000000000000000e+00" itree="12">
      <Node pos="s" depth="0" NCoef="0" IVar="0" Cut="3.8952381134033203e+01" cType="1" res="3.6674607545137405e-03" rms="4.2323273420333862e-01" purity="5.0388389825820923e-01" nType="0">
        <Node pos="l" depth="1" NCoef="0" IVar="0" Cut="8.8571424484252930e+00" cType="1" res="-8.4994383156299591e-02" rms="4.3044900894165039e-01" purity="3.4496694803237915e-01" nType="0">
          <Node pos="l" depth="2" NCoef="0" IVar="0" Cut="3.1428570747375488e+00" cType="1" res="-1.6227616369724274e-01" rms="3.8958960771560669e-01" purity="2.1498887240886688e-01" nType="0">
            <Node pos="l" depth="3" NCoef="0" IVar="12" Cut="2.3809565734863281e+02" cType="1" res="-2.1578097343444824e-01" rms="3.2222741842269897e-01" purity="1.2594379484653473e-01" nType="0">
              <Node pos="l" depth="4" NCoef="0" IVar="-1" Cut="0.0000000000000000e+00" cType="1" res="-1.3441512361168861e-02" rms="4.4697079062461853e-01" purity="2.8041109442710876e-01" nType="-99"/>
              <Node pos="r" depth="4" NCoef="0" IVar="0" Cut="2.0476191043853760e+00" cType="1" res="-2.3567819595336914e-01" rms="2.8193706274032593e-01" purity="9.0144537389278412e-02" nType="0">
                <Node pos="l" depth="5" NCoef="0" IVar="3" Cut="1.3464573621749878e+00" cType="1" res="0.0000000000000000e+00" rms="0.0000000000000000e+00" purity="5.5539082735776901e-02" nType="0">
                  <Node pos="l" depth="6" NCoef="0" IVar="-1" Cut="0.0000000000000000e+00" cType="1" res="-3.1368359923362732e-02" rms="2.0836420357227325e-01" purity="4.5999526977539062e-02" nType="-99"/>
                  <Node pos="r" depth="6" NCoef="0" IVar="-1" Cut="0.0000000000000000e+00" cType="1" res="-2.9375458136200905e-02" rms="2.4008673429489136e-01" purity="6.3688702881336212e-02" nType="-99"/>
                </Node>
                <Node pos="r" depth="5" NCoef="0" IVar="12" Cut="5.2834362792968750e+02" cType="1" res="0.0000000000000000e+00" rms="0.0000000000000000e+00" purity="1.2184796482324600e-01" nType="0">
                  <Node pos="l" depth="6" NCoef="0" IVar="-1" Cut="0.0000000000000000e+00" cType="1" res="-1.9327804446220398e-02" rms="3.8607233762741089e-01" purity="1.8508316576480865e-01" nType="-99"/>
                  <Node pos="r" depth="6" NCoef="0" IVar="-1" Cut="0.0000000000000000e+00" cType="1" res="-2.7497943490743637e-02" rms="2.6744493842124939e-01" purity="7.7472992241382599e-02" nType="-99"/>
                </Node>
              </Node>
            </Node>
            <Node pos="r" depth="3" NCoef="0" IVar="12" Cut="6.1905114746093750e+02" cType="1" res="-8.6061879992485046e-02" rms="4.5847004652023315e-01" purity="3.4182804822921753e-01" nType="0">
              <Node pos="l" depth="4" NCoef="0" IVar="10" Cut="3.5288424682617188e+02" cType="1" res="-4.1541352868080139e-02" rms="4.8190158605575562e-01" purity="4.1039714217185974e-01" nType="0">
                <Node pos="l" depth="5" NCoef="0" IVar="-1" Cut="0.0000000000000000e+00" cType="1" res="-6.7036034306511283e-04" rms="4.9617838859558105e-01" purity="4.8118159174919128e-01" nType="-99"/>
                <Node pos="r" depth="5" NCoef="0" IVar="-1" Cut="0.0000000000000000e+00" cType="1" res="-9.8722428083419800e-03" rms="4.5472329854965210e-01" purity="3.0444592237472534e-01" nType="-99"/>
              </Node>
              <Node pos="r" depth="4" NCoef="0" IVar="-1" Cut="0.0000000000000000e+00" cType="1" res="-2.1470608189702034e-02" rms="3.7033656239509583e-01" purity="1.6916055977344513e-01" nType="-99"/>
            </Node>
          </Node>
          <Node pos="r" depth="2" NCoef="0" IVar="10" Cut="3.3333859252929688e+02" cType="1" res="9.2333801090717316e-02" rms="4.6585318446159363e-01" purity="6.4321017265319824e-01" nType="0">
            <Node pos="l" depth="3" NCoef="0" IVar="-1" Cut="0.0000000000000000e+00" cType="1" res="1.5982780605554581e-02" rms="4.3366739153862000e-01" purity="7.4297744035720825e-01" nType="-99"/>
            <Node pos="r" depth="3" NCoef="0" IVar="-1" Cut="0.0000000000000000e+00" cType="1" res="2.1233232691884041e-03" rms="4.9068200588226318e-01" purity="5.2853041887283325e-01" nType="-99"/>
          </Node>
        </Node>
        <Node pos="r" depth="1" NCoef="0" IVar="-1" Cut="0.0000000000000000e+00" cType="1" res="2.4654995650053024e-02" rms="3.1522992253303528e-01" purity="8.8781493902206421e-01" nType="-99"/>
      </Node>
    </BinaryTree>
    <BinaryTree type="DecisionTree" boostWeight="1.0000000000000000e+00" itree="13">
      <Node pos="s" depth="0" NCoef="0" IVar="0" Cut="3.8619049072265625e+01" cType="1" res="5.6899001356214285e-04" rms="4.2006099224090576e-01" purity="4.9987262487411499e-01" nType="0">
        <Node pos="l" depth="1" NCoef="0" IVar="0" Cut="5.4285712242126465e+00" cType="1" res="-8.2245990633964539e-02" rms="4.2818862199783325e-01" purity="3.4309557080268860e-01" nType="0">
          <Node pos="l" depth="2" NCoef="0" IVar="12" Cut="6.1904809570312500e+02" cType="1" res="-1.8029251694679260e-01" rms="3.5480895638465881e-01" purity="1.6085541248321533e-01" nType="0">
            <Node pos="l" depth="3" NCoef="0" IVar="0" Cut="2.1428570747375488e+00" cType="1" res="-1.4922119677066803e-01" rms="4.0249365568161011e-01" purity="2.1641515195369720e-01" nType="0">
              <Node pos="l" depth="4" NCoef="0" IVar="-1" Cut="0.0000000000000000e+00" cType="1" res="-2.4935266003012657e-02" rms="3.2054945826530457e-01" purity="1.2033981084823608e-01" nType="-99"/>
              <Node pos="r" depth="4" NCoef="0" IVar="0" Cut="3.0952382087707520e+00" cType="1" res="-1.1076969653367996e-01" rms="4.3438959121704102e-01" purity="2.6667943596839905e-01" nType="0">
                <Node pos="l" depth="5" NCoef="0" IVar="3" Cut="1.6460211277008057e+00" cType="1" res="0.0000000000000000e+00" rms="0.0000000000000000e+00" purity="2.2393114864826202e-01" nType="0">
                  <Node pos="l" depth="6" NCoef="0" IVar="-1" Cut="0.0000000000000000e+00" cType="1" res="-1.5941400080919266e-02" rms="4.0525618195533752e-01" purity="2.1656399965286255e-01" nType="-99"/>
                  <Node pos="r" depth="6" NCoef="0" IVar="-1" Cut="0.0000000000000000e+00" cType="1" res="-1.4636610634624958e-02" rms="4.1477549076080322e-01" purity="2.3129726946353912e-01" nType="-99"/>
                </Node>
                <Node pos="r" depth="5" NCoef="0" IVar="-1" Cut="0.0000000000000000e+00" cType="1" res="-6.4134220592677593e-03" rms="4.6774616837501526e-01" purity="3.3763006329536438e-01" nType="-99"/>
              </Node>
            </Node>
            <Node pos="r" depth="3" NCoef="0" IVar="12" Cut="8.0045416259765625e+02" cType="1" res="-2.3786495625972748e-01" rms="2.3210789263248444e-01" purity="5.7908125221729279e-02" nType="0">
              <Node pos="l" depth="4" NCoef="0" IVar="-1" Cut="0.0000000000000000e+00" cType="1" res="-2.6287110522389412e-02" rms="2.6898589730262756e-01" purity="7.9634793102741241e-02" nType="-99"/>
              <Node pos="r" depth="4" NCoef="0" IVar="-1" Cut="0.0000000000000000e+00" cType="1" res="-3.0590720474720001e-02" rms="1.9383759796619415e-01" purity="3.9301354438066483e-02" nType="-99"/>
            </Node>
          </Node>
          <Node pos="r" depth="2" NCoef="0" IVar="0" Cut="1.6666666030883789e+01" cType="1" res="2.9600813984870911e-02" rms="4.7477653622627258e-01" purity="5.5098646879196167e-01" nType="0">
            <Node pos="l" depth="3" NCoef="0" IVar="10" Cut="4.7619042968750000e+02" cType="1" res="-2.5771751999855042e-02" rms="4.8191419243812561e-01" purity="4.6538138389587402e-01" nType="0">
              <Node pos="l" depth="4" NCoef="0" IVar="4" Cut="4.4879382848739624e-01" cType="1" res="4.3122127652168274e-02" rms="4.9017840623855591e-01" purity="5.7590347528457642e-01" nType="0">
                <Node pos="l" depth="5" NCoef="0" IVar="-1" Cut="0.0000000000000000e+00" cType="1" res="1.7641580197960138e-03" rms="4.9069672822952271e-01" purity="5.5209881067276001e-01" nType="-99"/>
                <Node pos="r" depth="5" NCoef="0" IVar="-1" Cut="0.0000000000000000e+00" cType="1" res="7.3917633853852749e-03" rms="4.8788940906524658e-01" purity="6.0341197252273560e-01" nType="-99"/>
              </Node>
              <Node pos="r" depth="4" NCoef="0" IVar="-1" Cut="0.0000000000000000e+00" cType="1" res="-1.4201123267412186e-02" rms="4.4614347815513611e-01" purity="2.8618904948234558e-01" nType="-99"/>
            </Node>
            <Node pos="r" depth="3" NCoef="0" IVar="-1" Cut="0.0000000000000000e+00" cType="1" res="1.5116412192583084e-02" rms="4.3719273805618286e-01" purity="7.3066300153732300e-01" nType="-99"/>
          </Node>
        </Node>
        <Node pos="r" depth="1" NCoef="0" IVar="-1" Cut="0.0000000000000000e+00" cType="1" res="2.3524882271885872e-02" rms="3.1807661056518555e-01" purity="8.8535690307617188e-01" nType="-99"/>
      </Node>
    </BinaryTree>
    <BinaryTree type="DecisionTree" boostWeight="1.0000000000000000e+00" itree="14">
      <Node pos="s" depth="0" NCoef="0" IVar="0" Cut="3.9142856597900391e+01" cType="1" res="1.0835580760613084e-03" rms="4.1562780737876892e-01" purity="5.0141537189483643e-01" nType="0">
        <Node pos="l" depth="1" NCoef="0" IVar="0" Cut="7.2857141494750977e+00" cType="1" res="-7.8214488923549652e-02" rms="4.2521369457244873e-01" purity="3.4413224458694458e-01" nType="0">
          <Node pos="l" depth="2" NCoef="0" IVar="0" Cut="3.1904761791229248e+00" cType="1" res="-1.5587760508060455e-01" rms="3.7901812791824341e-01" purity="1.9951137900352478e-01" nType="0">
            <Node pos="l" depth="3" NCoef="0" IVar="0" Cut="2.0476191043853760e+00" cType="1" res="-1.9786193966865540e-01" rms="3.1931948661804199e-01" purity="1.2283203005790710e-01" nType="0">
              <Node pos="l" depth="4" NCoef="0" IVar="3" Cut="1.7952131032943726e+00" cType="1" res="0.0000000000000000e+00" rms="0.0000000000000000e+00" purity="8.1500530242919922e-02" nType="0">
                <Node pos="l" depth="5" NCoef="0" IVar="-1" Cut="0.0000000000000000e+00" cType="1" res="-2.5373879820108414e-02" rms="2.8730848431587219e-01" purity="9.3873046338558197e-02" nType="-99"/>
                <Node pos="r" depth="5" NCoef="0" IVar="-1" Cut="0.0000000000000000e+00" cType="1" res="-2.8708619996905327e-02" rms="2.4079410731792450e-01" purity="6.6189378499984741e-02" nType="-99"/>
              </Node>
              <Node pos="r" depth="4" NCoef="0" IVar="12" Cut="3.8095324707031250e+02" cType="1" res="0.0000000000000000e+00" rms="0.0000000000000000e+00" purity="1.5962874889373779e-01" nType="0">
                <Node pos="l" depth="5" NCoef="0" IVar="-1" Cut="0.0000000000000000e+00" cType="1" res="-1.2966528534889221e-02" rms="4.3717169761657715e-01" purity="2.6499292254447937e-01" nType="-99"/>
                <Node pos="r" depth="5" NCoef="0" IVar="10" Cut="6.4761041259765625e+02" cType="1" res="0.0000000000000000e+00" rms="0.0000000000000000e+00" purity="1.0467656701803207e-01" nType="0">
                  <Node pos="l" depth="6" NCoef="0" IVar="-1" Cut="0.0000000000000000e+00" cType="1" res="-2.2037230432033539e-02" rms="3.3253598213195801e-01" purity="1.2873418629169464e-01" nType="-99"/>
                  <Node pos="r" depth="6" NCoef="0" IVar="-1" Cut="0.0000000000000000e+00" cType="1" res="-2.5040604174137115e-02" rms="2.7170562744140625e-01" purity="8.0440409481525421e-02" nType="-99"/>
                </Node>
              </Node>
            </Node>
            <Node pos="r" depth="3" NCoef="0" IVar="12" Cut="6.1905187988281250e+02" cType="1" res="-8.7891615927219391e-02" rms="4.5131736993789673e-01" purity="3.2367965579032898e-01" nType="0">
              <Node pos="l" depth="4" NCoef="0" IVar="12" Cut="2.9479293823242188e+02" cType="1" res="-4.2020410299301147e-02" rms="4.8058548569679260e-01" purity="3.9741075038909912e-01" nType="0">
                <Node pos="l" depth="5" NCoef="0" IVar="-1" Cut="0.0000000000000000e+00" cType="1" res="9.2803871666546911e-05" rms="4.9688190221786499e-01" purity="4.8345547914505005e-01" nType="-99"/>
                <Node pos="r" depth="5" NCoef="0" IVar="-1" Cut="0.0000000000000000e+00" cType="1" res="-8.9911883696913719e-03" rms="4.5966279506683350e-01" purity="3.1114220619201660e-01" nType="-99"/>
              </Node>
              <Node pos="r" depth="4" NCoef="0" IVar="-1" Cut="0.0000000000000000e+00" cType="1" res="-2.2875813767313957e-02" rms="3.4010377526283264e-01" purity="1.3673700392246246e-01" nType="-99"/>
            </Node>
          </Node>
          <Node pos="r" depth="2" NCoef="0" IVar="12" Cut="2.8571209716796875e+02" cType="1" res="7.2433233261108398e-02" rms="4.6741625666618347e-01" purity="6.2466192245483398e-01" nType="0">
            <Node pos="l" depth="3" NCoef="0" IVar="-1" Cut="0.0000000000000000e+00" cType="1" res="1.4850899577140808e-02" rms="4.3579915165901184e-01" purity="7.3958283662796021e-01" nType="-99"/>
            <Node pos="r" depth="3" NCoef="0" IVar="0" Cut="1.3904762268066406e+01" cType="1" res="8.2684122025966644e-03" rms="4.8582506179809570e-01" purity="5.1938903331756592e-01" nType="0">
              <Node pos="l" depth="4" NCoef="0" IVar="-1" Cut="0.0000000000000000e+00" cType="1" res="-4.0398589335381985e-03" rms="4.8507189750671387e-01" purity="4.2141684889793396e-01" nType="-99"/>
              <Node pos="r" depth="4" NCoef="0" IVar="-1" Cut="0.0000000000000000e+00" cType="1" res="5.4357247427105904e-03" rms="4.8221766948699951e-01" purity="6.1117184162139893e-01" nType="-99"/>
            </Node>
          </Node>
        </Node>
        <Node pos="r" depth="1" NCoef="0" IVar="-1" Cut="0.0000000000000000e+00" cType="1" res="2.2967148572206497e-02" rms="3.1563386321067810e-01" purity="8.8753658533096313e-01" nType="-99"/>
      </Node>
    </BinaryTree>
    <BinaryTree type="DecisionTree" boostWeight="1.0000000000000000e+00" itree="15">
      <Node pos="s" depth="0" NCoef="0" IVar="0" Cut="3.9238094329833984e+01" cType="1" res="-4.5337574556469917e-03" rms="4.1218879818916321e-01" purity="4.9470844864845276e-01" nType="0">
        <Node pos="l" depth="1" NCoef="0" IVar="0" Cut="5.5238094329833984e+00" cType="1" res="-8.2614332437515259e-02" rms="4.2143619060516357e-01" purity="3.3366167545318604e-01" nType="0">
          <Node pos="l" depth="2" NCoef="0" IVar="0" Cut="3.1428570747375488e+00" cType="1" res="-1.7013105750083923e-01" rms="3.4673252701759338e-01" purity="1.5301787853240967e-01" nType="0">
            <Node pos="l" depth="3" NCoef="0" IVar="8" Cut="2.9760642051696777e+00" cType="1" res="-1.9115683436393738e-01" rms="3.1557813286781311e-01" purity="1.1948198080062866e-01" nType="0">
              <Node pos="l" depth="4" NCoef="0" IVar="3" Cut="1.1968563795089722e+00" cType="1" res="-2.0872063934803009e-01" rms="2.8979507088661194e-01" purity="9.7969375550746918e-02" nType="0">
                <Node pos="l" depth="5" NCoef="0" IVar="-1" Cut="0.0000000000000000e+00" cType="1" res="-2.9215296730399132e-02" rms="2.2813402116298676e-01" purity="5.6910477578639984e-02" nType="-99"/>
                <Node pos="r" depth="5" NCoef="0" IVar="3" Cut="1.7524688243865967e+00" cType="1" res="-1.9369269907474518e-01" rms="3.1142786145210266e-01" purity="1.1565528810024261e-01" nType="0">
                  <Node pos="l" depth="6" NCoef="0" IVar="-1" Cut="0.0000000000000000e+00" cType="1" res="-1.7452687025070190e-02" rms="3.6313456296920776e-01" purity="1.6831812262535095e-01" nType="-99"/>
                  <Node pos="r" depth="6" NCoef="0" IVar="-1" Cut="0.0000000000000000e+00" cType="1" res="-2.6583245024085045e-02" rms="2.6842916011810303e-01" purity="8.1150688230991364e-02" nType="-99"/>
                </Node>
              </Node>
              <Node pos="r" depth="4" NCoef="0" IVar="3" Cut="1.7952083349227905e+00" cType="1" res="-1.5844646096229553e-01" rms="3.5638982057571411e-01" purity="1.5954649448394775e-01" nType="0">
                <Node pos="l" depth="5" NCoef="0" IVar="-1" Cut="0.0000000000000000e+00" cType="1" res="-1.7418093979358673e-02" rms="3.6478239297866821e-01" purity="1.6873563826084137e-01" nType="-99"/>
                <Node pos="r" depth="5" NCoef="0" IVar="-1" Cut="0.0000000000000000e+00" cType="1" res="-1.9588809460401535e-02" rms="3.4740212559700012e-01" purity="1.5019837021827698e-01" nType="-99"/>
              </Node>
            </Node>
            <Node pos="r" depth="3" NCoef="0" IVar="-1" Cut="0.0000000000000000e+00" cType="1" res="-1.0912200435996056e-02" rms="4.2772483825683594e-01" purity="2.6544836163520813e-01" nType="-99"/>
          </Node>
          <Node pos="r" depth="2" NCoef="0" IVar="0" Cut="1.7000000000000000e+01" cType="1" res="1.8127817660570145e-02" rms="4.7402513027191162e-01" purity="5.4160422086715698e-01" nType="0">
            <Node pos="l" depth="3" NCoef="0" IVar="10" Cut="6.1903570556640625e+02" cType="1" res="-2.9306592419743538e-02" rms="4.8055705428123474e-01" purity="4.5938181877136230e-01" nType="0">
              <Node pos="l" depth="4" NCoef="0" IVar="12" Cut="2.0664585876464844e+02" cType="1" res="1.3639970682561398e-02" rms="4.8974755406379700e-01" purity="5.2957487106323242e-01" nType="0">
                <Node pos="l" depth="5" NCoef="0" IVar="-1" Cut="0.0000000000000000e+00" cType="1" res="5.6935292668640614e-03" rms="4.8284137248992920e-01" purity="6.1733478307723999e-01" nType="-99"/>
                <Node pos="r" depth="5" NCoef="0" IVar="-1" Cut="0.0000000000000000e+00" cType="1" res="-1.4968261821195483e-03" rms="4.9231642484664917e-01" purity="4.7059458494186401e-01" nType="-99"/>
              </Node>
              <Node pos="r" depth="4" NCoef="0" IVar="-1" Cut="0.0000000000000000e+00" cType="1" res="-1.6376895830035210e-02" rms="4.2770397663116455e-01" purity="2.5164633989334106e-01" nType="-99"/>
            </Node>
            <Node pos="r" depth="3" NCoef="0" IVar="-1" Cut="0.0000000000000000e+00" cType="1" res="1.2548127211630344e-02" rms="4.4291114807128906e-01" purity="7.1786320209503174e-01" nType="-99"/>
          </Node>
        </Node>
        <Node pos="r" depth="1" NCoef="0" IVar="-1" Cut="0.0000000000000000e+00" cType="1" res="2.2167395800352097e-02" rms="3.1641235947608948e-01" purity="8.8692647218704224e-01" nType="-99"/>
      </Node>
    </BinaryTree>
    <BinaryTree type="DecisionTree" boostWeight="1.0000000000000000e+00" itree="16">
      <Node pos="s" depth="0" NCoef="0" IVar="0" Cut="3.9238094329833984e+01" cType="1" res="3.7419784348458052e-03" rms="4.1202959418296814e-01" purity="5.0167524814605713e-01" nType="0">
        <Node pos="l" depth="1" NCoef="0" IVar="0" Cut="7.2857141494750977e+00" cType="1" res="-6.4060442149639130e-02" rms="4.2520928382873535e-01" purity="3.4950685501098633e-01" nType="0">
          <Node pos="l" depth="2" NCoef="0" IVar="10" Cut="3.3333618164062500e+02" cType="1" res="-1.2826833128929138e-01" rms="3.8710594177246094e-01" purity="2.1293750405311584e-01" nType="0">
            <Node pos="l" depth="3" NCoef="0" IVar="0" Cut="3.1904761791229248e+00" cType="1" res="-5.0326887518167496e-02" rms="4.7132933139801025e-01" purity="3.7112894654273987e-01" nType="0">
              <Node pos="l" depth="4" NCoef="0" IVar="-1" Cut="0.0000000000000000e+00" cType="1" res="-1.0010218247771263e-02" rms="4.4323918223381042e-01" purity="2.7785938978195190e-01" nType="-99"/>
              <Node pos="r" depth="4" NCoef="0" IVar="-1" Cut="0.0000000000000000e+00" cType="1" res="-1.7708358063828200e-04" rms="4.9676373600959778e-01" purity="4.7666224837303162e-01" nType="-99"/>
            </Node>
            <Node pos="r" depth="3" NCoef="0" IVar="0" Cut="5.0952382087707520e+00" cType="1" res="-1.6608105599880219e-01" rms="3.3226200938224792e-01" purity="1.3619205355644226e-01" nType="0">
              <Node pos="l" depth="4" NCoef="0" IVar="10" Cut="6.1905133056640625e+02" cType="1" res="-1.8081341683864594e-01" rms="2.9987460374832153e-01" purity="1.0398156940937042e-01" nType="0">
                <Node pos="l" depth="5" NCoef="0" IVar="0" Cut="2.1428570747375488e+00" cType="1" res="-1.5348900854587555e-01" rms="3.5310137271881104e-01" purity="1.5015821158885956e-01" nType="0">
                  <Node pos="l" depth="6" NCoef="0" IVar="-1" Cut="0.0000000000000000e+00" cType="1" res="-2.2514488548040390e-02" rms="2.9420480132102966e-01" purity="9.6125595271587372e-02" nType="-99"/>
                  <Node pos="r" depth="6" NCoef="0" IVar="-1" Cut="0.0000000000000000e+00" cType="1" res="-1.5825575217604637e-02" rms="3.8379776477813721e-01" purity="1.8317338824272156e-01" nType="-99"/>
                </Node>
                <Node pos="r" depth="5" NCoef="0" IVar="0" Cut="2.1428570747375488e+00" cType="1" res="-2.0822666585445404e-01" rms="2.3142050206661224e-01" purity="5.7654801756143570e-02" nType="0">
                  <Node pos="l" depth="6" NCoef="0" IVar="-1" Cut="0.0000000000000000e+00" cType="1" res="-2.9283454641699791e-02" rms="1.7415909469127655e-01" purity="3.1230743974447250e-02" nType="-99"/>
                  <Node pos="r" depth="6" NCoef="0" IVar="-1" Cut="0.0000000000000000e+00" cType="1" res="-2.5118555873632431e-02" rms="2.6206570863723755e-01" purity="7.5052380561828613e-02" nType="-99"/>
                </Node>
              </Node>
              <Node pos="r" depth="4" NCoef="0" IVar="-1" Cut="0.0000000000000000e+00" cType="1" res="-1.0062524117529392e-02" rms="4.5095759630203247e-01" purity="2.9210680723190308e-01" nType="-99"/>
            </Node>
          </Node>
          <Node pos="r" depth="2" NCoef="0" IVar="10" Cut="3.8095486450195312e+02" cType="1" res="6.3811078667640686e-02" rms="4.6677935123443604e-01" purity="6.2148785591125488e-01" nType="0">
            <Node pos="l" depth="3" NCoef="0" IVar="-1" Cut="0.0000000000000000e+00" cType="1" res="1.2698289938271046e-02" rms="4.4300627708435059e-01" purity="7.2325539588928223e-01" nType="-99"/>
            <Node pos="r" depth="3" NCoef="0" IVar="-1" Cut="0.0000000000000000e+00" cType="1" res="-1.6563836252316833e-03" rms="4.8696887493133545e-01" purity="4.7920486330986023e-01" nType="-99"/>
          </Node>
        </Node>
        <Node pos="r" depth="1" NCoef="0" IVar="-1" Cut="0.0000000000000000e+00" cType="1" res="2.1273244172334671e-02" rms="3.1790307164192200e-01" purity="8.8561117649078369e-01" nType="-99"/>
      </Node>
    </BinaryTree>
    <BinaryTree type="DecisionTree" boostWeight="1.0000000000000000e+00" itree="17">
      <Node pos="s" depth="0" NCoef="0" IVar="0" Cut="3.9238094329833984e+01" cType="1" res="-3.2127285376191139e-03" rms="4.0649163722991943e-01" purity="4.9660310149192810e-01" nType="0">
        <Node pos="l" depth="1" NCoef="0" IVar="0" Cut="9.0476188659667969e+00" cType="1" res="-7.3373295366764069e-02" rms="4.1855657100677490e-01" purity="3.3640849590301514e-01" nType="0">
          <Node pos="l" depth="2" NCoef="0" IVar="12" Cut="3.8095324707031250e+02" cType="1" res="-1.2578722834587097e-01" rms="3.8868787884712219e-01" purity="2.2261293232440948e-01" nType="0">
            <Node pos="l" depth="3" NCoef="0" IVar="0" Cut="3.3333332538604736e+00" cType="1" res="-6.3428908586502075e-02" rms="4.6303275227546692e-01" purity="3.6260467767715454e-01" nType="0">
              <Node pos="l" depth="4" NCoef="0" IVar="-1" Cut="0.0000000000000000e+00" cType="1" res="-1.3604977168142796e-02" rms="4.1745334863662720e-01" purity="2.3092104494571686e-01" nType="-99"/>
              <Node pos="r" depth="4" NCoef="0" IVar="4" Cut="-4.4877696037292480e-01" cType="1" res="-7.5854579918086529e-03" rms="4.9481686949729919e-01" purity="4.8384714126586914e-01" nType="0">
                <Node pos="l" depth="5" NCoef="0" IVar="-1" Cut="0.0000000000000000e+00" cType="1" res="2.6394610758870840e-03" rms="4.9297004938125610e-01" purity="5.1915621757507324e-01" nType="-99"/>
                <Node pos="r" depth="5" NCoef="0" IVar="-1" Cut="0.0000000000000000e+00" cType="1" res="-4.1001196950674057e-03" rms="4.9442064762115479e-01" purity="4.4939643144607544e-01" nType="-99"/>
              </Node>
            </Node>
            <Node pos="r" depth="3" NCoef="0" IVar="5" Cut="9.6378564834594727e+00" cType="1" res="-1.6625098884105682e-01" rms="3.2531404495239258e-01" purity="1.3177351653575897e-01" nType="0">
              <Node pos="l" depth="4" NCoef="0" IVar="10" Cut="6.1911444091796875e+02" cType="1" res="-1.8339879810810089e-01" rms="2.8565651178359985e-01" purity="9.4588264822959900e-02" nType="0">
                <Node pos="l" depth="5" NCoef="0" IVar="5" Cut="1.0309003591537476e+00" cType="1" res="-1.5354377031326294e-01" rms="3.4461319446563721e-01" purity="1.4392237365245819e-01" nType="0">
                  <Node pos="l" depth="6" NCoef="0" IVar="-1" Cut="0.0000000000000000e+00" cType="1" res="-2.2995602339506149e-02" rms="2.9536363482475281e-01" purity="9.6797443926334381e-02" nType="-99"/>
                  <Node pos="r" depth="6" NCoef="0" IVar="-1" Cut="0.0000000000000000e+00" cType="1" res="-1.5132035128772259e-02" rms="3.7680715322494507e-01" purity="1.8086810410022736e-01" nType="-99"/>
                </Node>
                <Node pos="r" depth="5" NCoef="0" IVar="8" Cut="2.9705722332000732e+00" cType="1" res="-2.0851536095142365e-01" rms="2.2126449644565582e-01" purity="5.3084224462509155e-02" nType="0">
                  <Node pos="l" depth="6" NCoef="0" IVar="-1" Cut="0.0000000000000000e+00" cType="1" res="-2.6385033503174782e-02" rms="2.2398146986961365e-01" purity="5.5323474109172821e-02" nType="-99"/>
                  <Node pos="r" depth="6" NCoef="0" IVar="-1" Cut="0.0000000000000000e+00" cType="1" res="-2.8210179880261421e-02" rms="2.1639010310173035e-01" purity="4.9672428518533707e-02" nType="-99"/>
                </Node>
              </Node>
              <Node pos="r" depth="4" NCoef="0" IVar="-1" Cut="0.0000000000000000e+00" cType="1" res="-9.6234381198883057e-03" rms="4.5354554057121277e-01" purity="2.9582545161247253e-01" nType="-99"/>
            </Node>
          </Node>
          <Node pos="r" depth="2" NCoef="0" IVar="10" Cut="3.3333660888671875e+02" cType="1" res="6.9897584617137909e-02" rms="4.6158513426780701e-01" purity="6.4746296405792236e-01" nType="0">
            <Node pos="l" depth="3" NCoef="0" IVar="-1" Cut="0.0000000000000000e+00" cType="1" res="1.3294695876538754e-02" rms="4.3216928839683533e-01" purity="7.4612665176391602e-01" nType="-99"/>
            <Node pos="r" depth="3" NCoef="0" IVar="-1" Cut="0.0000000000000000e+00" cType="1" res="4.2450363980606198e-04" rms="4.8644867539405823e-01" purity="5.2925139665603638e-01" nType="-99"/>
          </Node>
        </Node>
        <Node pos="r" depth="1" NCoef="0" IVar="-1" Cut="0.0000000000000000e+00" cType="1" res="2.0818769931793213e-02" rms="3.1564816832542419e-01" purity="8.8746154308319092e-01" nType="-99"/>
      </Node>
    </BinaryTree>
    <BinaryTree type="DecisionTree" boostWeight="1.0000000000000000e+00" itree="18">
      <Node pos="s" depth="0" NCoef="0" IVar="0" Cut="3.9238094329833984e+01" cType="1" res="1.0669569019228220e-03" rms="4.0540230274200439e-01" purity="5.0014603137969971e-01" nType="0">
        <Node pos="l" depth="1" NCoef="0" IVar="0" Cut="5.5238094329833984e+00" cType="1" res="-6.2331557273864746e-02" rms="4.1947898268699646e-01" purity="3.4506899118423462e-01" nType="0">
          <Node pos="l" depth="2" NCoef="0" IVar="10" Cut="3.3333782958984375e+02" cType="1" res="-1.4224459230899811e-01" rms="3.4940400719642639e-01" purity="1.5854725241661072e-01" nType="0">
            <Node pos="l" depth="3" NCoef="0" IVar="9" Cut="-4.7621688842773438e+00" cType="1" res="-8.0767035484313965e-02" rms="4.4995081424713135e-01" purity="2.9888427257537842e-01" nType="0">
              <Node pos="l" depth="4" NCoef="0" IVar="-1" Cut="0.0000000000000000e+00" cType="1" res="-1.4951951801776886e-02" rms="4.1605126857757568e-01" purity="2.3267167806625366e-01" nType="-99"/>
              <Node pos="r" depth="4" NCoef="0" IVar="-1" Cut="0.0000000000000000e+00" cType="1" res="-3.4945353399962187e-03" rms="4.7068116068840027e-01" purity="3.5335156321525574e-01" nType="-99"/>
            </Node>
            <Node pos="r" depth="3" NCoef="0" IVar="0" Cut="3.1428570747375488e+00" cType="1" res="-1.6831587255001068e-01" rms="2.9277363419532776e-01" purity="9.9033392965793610e-02" nType="0">
              <Node pos="l" depth="4" NCoef="0" IVar="13" Cut="4.5238096266984940e-02" cType="1" res="-1.7998491227626801e-01" rms="2.6537242531776428e-01" purity="7.8189067542552948e-02" nType="0">
                <Node pos="l" depth="5" NCoef="0" IVar="3" Cut="1.1970177888870239e+00" cType="1" res="-1.9384625554084778e-01" rms="2.4023666977882385e-01" purity="6.2679074704647064e-02" nType="0">
                  <Node pos="l" depth="6" NCoef="0" IVar="-1" Cut="0.0000000000000000e+00" cType="1" res="-2.7878075838088989e-02" rms="2.0313191413879395e-01" purity="4.4161044061183929e-02" nType="-99"/>
                  <Node pos="r" depth="6" NCoef="0" IVar="-1" Cut="0.0000000000000000e+00" cType="1" res="-2.4076798930764198e-02" rms="2.5944769382476807e-01" purity="7.3823340237140656e-02" nType="-99"/>
                </Node>
                <Node pos="r" depth="5" NCoef="0" IVar="-1" Cut="0.0000000000000000e+00" cType="1" res="-2.0266579464077950e-02" rms="3.0285927653312683e-01" purity="1.0531237721443176e-01" nType="-99"/>
              </Node>
              <Node pos="r" depth="4" NCoef="0" IVar="-1" Cut="0.0000000000000000e+00" cType="1" res="-1.4600060880184174e-02" rms="3.7814107537269592e-01" purity="1.8066684901714325e-01" nType="-99"/>
            </Node>
          </Node>
          <Node pos="r" depth="2" NCoef="0" IVar="10" Cut="5.2380987548828125e+02" cType="1" res="2.7667950838804245e-02" rms="4.7047910094261169e-01" purity="5.5513316392898560e-01" nType="0">
            <Node pos="l" depth="3" NCoef="0" IVar="0" Cut="1.2285714149475098e+01" cType="1" res="7.0885926485061646e-02" rms="4.6703210473060608e-01" purity="6.3789010047912598e-01" nType="0">
              <Node pos="l" depth="4" NCoef="0" IVar="13" Cut="4.5238096266984940e-02" cType="1" res="2.2830098867416382e-02" rms="4.9230527877807617e-01" purity="5.4336553812026978e-01" nType="0">
                <Node pos="l" depth="5" NCoef="0" IVar="-1" Cut="0.0000000000000000e+00" cType="1" res="6.3174357637763023e-03" rms="4.8976600170135498e-01" purity="5.7964044809341431e-01" nType="-99"/>
                <Node pos="r" depth="5" NCoef="0" IVar="-1" Cut="0.0000000000000000e+00" cType="1" res="-3.4661819227039814e-03" rms="4.9043592810630798e-01" purity="4.9074605107307434e-01" nType="-99"/>
              </Node>
              <Node pos="r" depth="4" NCoef="0" IVar="-1" Cut="0.0000000000000000e+00" cType="1" res="1.3668930158019066e-02" rms="4.2831596732139587e-01" purity="7.4976617097854614e-01" nType="-99"/>
            </Node>
            <Node pos="r" depth="3" NCoef="0" IVar="0" Cut="9.1428575515747070e+00" cType="1" res="-6.4462296664714813e-02" rms="4.6451035141944885e-01" purity="3.7871530652046204e-01" nType="0">
              <Node pos="l" depth="4" NCoef="0" IVar="-1" Cut="0.0000000000000000e+00" cType="1" res="-1.3246388174593449e-02" rms="4.2850020527839661e-01" purity="2.4477779865264893e-01" nType="-99"/>
              <Node pos="r" depth="4" NCoef="0" IVar="-1" Cut="0.0000000000000000e+00" cType="1" res="-1.2556227156892419e-03" rms="4.8871454596519470e-01" purity="4.9876576662063599e-01" nType="-99"/>
            </Node>
          </Node>
        </Node>
        <Node pos="r" depth="1" NCoef="0" IVar="-1" Cut="0.0000000000000000e+00" cType="1" res="2.0063193514943123e-02" rms="3.1696429848670959e-01" purity="8.8647514581680298e-01" nType="-99"/>
      </Node>
    </BinaryTree>
    <BinaryTree type="DecisionTree" boostWeight="1.0000000000000000e+00" itree="19">
      <Node pos="s" depth="0" NCoef="0" IVar="8" Cut="4.7731155395507812e+01" cType="1" res="-3.5288042272441089e-04" rms="4.0239366888999939e-01" purity="4.9973574280738831e-01" nType="0">
        <Node pos="l" depth="1" NCoef="0" IVar="12" Cut="4.2857168579101562e+02" cType="1" res="-7.0081360638141632e-02" rms="4.1302946209907532e-01" purity="3.2379710674285889e-01" nType="0">
          <Node pos="l" depth="2" NCoef="0" IVar="8" Cut="2.3919095993041992e+00" cType="1" res="-9.6718957647681236e-03" rms="4.5599818229675293e-01" purity="4.6884286403656006e-01" nType="0">
            <Node pos="l" depth="3" NCoef="0" IVar="-1" Cut="0.0000000000000000e+00" cType="1" res="-1.1851141229271889e-02" rms="4.1552174091339111e-01" purity="2.6174288988113403e-01" nType="-99"/>
            <Node pos="r" depth="3" NCoef="0" IVar="8" Cut="1.5345868110656738e+01" cType="1" res="2.3295262828469276e-02" rms="4.6425670385360718e-01" purity="5.3874540328979492e-01" nType="0">
              <Node pos="l" depth="4" NCoef="0" IVar="7" Cut="2.2993257045745850e+00" cType="1" res="-1.0569961741566658e-02" rms="4.6870809793472290e-01" purity="4.5746308565139771e-01" nType="0">
                <Node pos="l" depth="5" NCoef="0" IVar="4" Cut="-1.4957669377326965e-01" cType="1" res="2.1335354074835777e-02" rms="4.7171476483345032e-01" purity="5.3137665987014771e-01" nType="0">
                  <Node pos="l" depth="6" NCoef="0" IVar="-1" Cut="0.0000000000000000e+00" cType="1" res="9.2555250739678741e-04" rms="4.7391355037689209e-01" purity="5.1691502332687378e-01" nType="-99"/>
                  <Node pos="r" depth="6" NCoef="0" IVar="-1" Cut="0.0000000000000000e+00" cType="1" res="3.4682482946664095e-03" rms="4.6935310959815979e-01" purity="5.4487729072570801e-01" nType="-99"/>
                </Node>
                <Node pos="r" depth="5" NCoef="0" IVar="-1" Cut="0.0000000000000000e+00" cType="1" res="-8.3548845723271370e-03" rms="4.5535832643508911e-01" purity="3.0433288216590881e-01" nType="-99"/>
              </Node>
              <Node pos="r" depth="4" NCoef="0" IVar="-1" Cut="0.0000000000000000e+00" cType="1" res="9.5237968489527702e-03" rms="4.4829046726226807e-01" purity="6.9619888067245483e-01" nType="-99"/>
            </Node>
          </Node>
          <Node pos="r" depth="2" NCoef="0" IVar="8" Cut="1.5993630409240723e+01" cType="1" res="-1.2904524803161621e-01" rms="3.5652095079421997e-01" purity="1.8222226202487946e-01" nType="0">
            <Node pos="l" depth="3" NCoef="0" IVar="10" Cut="6.0846368408203125e+02" cType="1" res="-1.4462999999523163e-01" rms="3.2931831479072571e-01" purity="1.4161545038223267e-01" nType="0">
              <Node pos="l" depth="4" NCoef="0" IVar="8" Cut="3.1479384899139404e+00" cType="1" res="-1.1078254133462906e-01" rms="3.8061937689781189e-01" purity="1.9565832614898682e-01" nType="0">
                <Node pos="l" depth="5" NCoef="0" IVar="-1" Cut="0.0000000000000000e+00" cType="1" res="-1.6545100137591362e-02" rms="3.4091964364051819e-01" purity="1.4452253282070160e-01" nType="-99"/>
                <Node pos="r" depth="5" NCoef="0" IVar="-1" Cut="0.0000000000000000e+00" cType="1" res="-1.0296596214175224e-02" rms="4.1723635792732239e-01" purity="2.4933505058288574e-01" nType="-99"/>
              </Node>
              <Node pos="r" depth="4" NCoef="0" IVar="3" Cut="1.9449324607849121e+00" cType="1" res="-1.6623568534851074e-01" rms="2.8983494639396667e-01" purity="1.0711851716041565e-01" nType="0">
                <Node pos="l" depth="5" NCoef="0" IVar="3" Cut="1.2967917919158936e+00" cType="1" res="-1.5187470614910126e-01" rms="3.1195524334907532e-01" purity="1.2950643897056580e-01" nType="0">
                  <Node pos="l" depth="6" NCoef="0" IVar="-1" Cut="0.0000000000000000e+00" cType="1" res="-2.3956205695867538e-02" rms="2.6498624682426453e-01" purity="7.9464204609394073e-02" nType="-99"/>
                  <Node pos="r" depth="6" NCoef="0" IVar="-1" Cut="0.0000000000000000e+00" cType="1" res="-1.4055209234356880e-02" rms="3.5950762033462524e-01" purity="1.9339659810066223e-01" nType="-99"/>
                </Node>
                <Node pos="r" depth="5" NCoef="0" IVar="-1" Cut="0.0000000000000000e+00" cType="1" res="-2.6054259389638901e-02" rms="2.3551572859287262e-01" purity="6.1288762837648392e-02" nType="-99"/>
              </Node>
            </Node>
            <Node pos="r" depth="3" NCoef="0" IVar="-1" Cut="0.0000000000000000e+00" cType="1" res="-4.0917801670730114e-03" rms="4.7448158264160156e-01" purity="4.1617140173912048e-01" nType="-99"/>
          </Node>
        </Node>
        <Node pos="r" depth="1" NCoef="0" IVar="-1" Cut="0.0000000000000000e+00" cType="1" res="1.7810514196753502e-02" rms="3.3730444312095642e-01" purity="8.6023861169815063e-01" nType="-99"/>
      </Node>
    </BinaryTree>
    <BinaryTree type="DecisionTree" boostWeight="1.0000000000000000e+00" itree="20">
      <Node pos="s" depth="0" NCoef="0" IVar="0" Cut="3.9142856597900391e+01" cType="1" res="-1.4590226346626878e-03" rms="4.0160199999809265e-01" purity="4.9733120203018188e-01" nType="0">
        <Node pos="l" depth="1" NCoef="0" IVar="0" Cut="3.7619047164916992e+00" cType="1" res="-6.2494557350873947e-02" rms="4.1737231612205505e-01" purity="3.3564242720603943e-01" nType="0">
          <Node pos="l" depth="2" NCoef="0" IVar="7" Cut="2.9700813293457031e+00" cType="1" res="-1.4549598097801208e-01" rms="3.2288220524787903e-01" purity="1.2658894062042236e-01" nType="0">
            <Node pos="l" depth="3" NCoef="0" IVar="0" Cut="2.0476191043853760e+00" cType="1" res="-1.6160462796688080e-01" rms="3.0267331004142761e-01" purity="1.0663011670112610e-01" nType="0">
              <Node pos="l" depth="4" NCoef="0" IVar="11" Cut="4.7619333267211914e+00" cType="1" res="0.0000000000000000e+00" rms="0.0000000000000000e+00" purity="6.9440551102161407e-02" nType="0">
                <Node pos="l" depth="5" NCoef="0" IVar="-1" Cut="0.0000000000000000e+00" cType="1" res="-2.5812460109591484e-02" rms="2.3839198052883148e-01" purity="6.0976129025220871e-02" nType="-99"/>
                <Node pos="r" depth="5" NCoef="0" IVar="-1" Cut="0.0000000000000000e+00" cType="1" res="-2.3441256955265999e-02" rms="2.6372039318084717e-01" purity="7.7761262655258179e-02" nType="-99"/>
              </Node>
              <Node pos="r" depth="4" NCoef="0" IVar="6" Cut="1.8571139574050903e+00" cType="1" res="0.0000000000000000e+00" rms="0.0000000000000000e+00" purity="1.3687784969806671e-01" nType="0">
                <Node pos="l" depth="5" NCoef="0" IVar="-1" Cut="0.0000000000000000e+00" cType="1" res="-2.1011663600802422e-02" rms="3.1056892871856689e-01" purity="1.1202559620141983e-01" nType="-99"/>
                <Node pos="r" depth="5" NCoef="0" IVar="-1" Cut="0.0000000000000000e+00" cType="1" res="-1.4138384722173214e-02" rms="3.6700361967086792e-01" purity="1.6895721852779388e-01" nType="-99"/>
              </Node>
            </Node>
